digraph Tree {
node [shape=box, style="filled", color="black", fontname="helvetica"] ;
edge [fontname="helvetica"] ;
0 [label="precipitation <= 0.122\ngini = 0.8\nsamples = 2240\nvalue = [448, 448, 448, 448, 448]\nclass = drizzle", fillcolor="#ffffff"] ;
1 [label="wind <= 2.6\ngini = 0.684\nsamples = 1381\nvalue = [448, 448, 37, 0, 448]\nclass = drizzle", fillcolor="#ffffff"] ;
0 -> 1 [labeldistance=2.5, labelangle=45, headlabel="True"] ;
2 [label="wind <= 1.368\ngini = 0.663\nsamples = 775\nvalue = [300, 281, 12, 0, 182]\nclass = drizzle", fillcolor="#fefaf7"] ;
1 -> 2 ;
3 [label="temp_max <= 21.4\ngini = 0.497\nsamples = 96\nvalue = [6, 63, 2, 0, 25]\nclass = fog", fillcolor="#b8f195"] ;
2 -> 3 ;
4 [label="wind <= 0.82\ngini = 0.441\nsamples = 88\nvalue = [6, 63, 1, 0, 18]\nclass = fog", fillcolor="#aaee80"] ;
3 -> 4 ;
5 [label="wind <= 0.7\ngini = 0.219\nsamples = 8\nvalue = [0, 1, 0, 0, 7]\nclass = sun", fillcolor="#e955c9"] ;
4 -> 5 ;
6 [label="gini = 0.0\nsamples = 4\nvalue = [0, 0, 0, 0, 4]\nclass = sun", fillcolor="#e539c0"] ;
5 -> 6 ;
7 [label="temp_max <= 7.5\ngini = 0.375\nsamples = 4\nvalue = [0, 1, 0, 0, 3]\nclass = sun", fillcolor="#ee7bd5"] ;
5 -> 7 ;
8 [label="gini = 0.0\nsamples = 2\nvalue = [0, 0, 0, 0, 2]\nclass = sun", fillcolor="#e539c0"] ;
7 -> 8 ;
9 [label="temp_max <= 10.25\ngini = 0.5\nsamples = 2\nvalue = [0, 1, 0, 0, 1]\nclass = fog", fillcolor="#ffffff"] ;
7 -> 9 ;
10 [label="gini = 0.0\nsamples = 1\nvalue = [0, 1, 0, 0, 0]\nclass = fog", fillcolor="#7be539"] ;
9 -> 10 ;
11 [label="gini = 0.0\nsamples = 1\nvalue = [0, 0, 0, 0, 1]\nclass = sun", fillcolor="#e539c0"] ;
9 -> 11 ;
12 [label="temp_max <= 4.422\ngini = 0.375\nsamples = 80\nvalue = [6, 62, 1, 0, 11]\nclass = fog", fillcolor="#9dec6d"] ;
4 -> 12 ;
13 [label="gini = 0.0\nsamples = 2\nvalue = [2, 0, 0, 0, 0]\nclass = drizzle", fillcolor="#e58139"] ;
12 -> 13 ;
14 [label="temp_min <= 9.15\ngini = 0.345\nsamples = 78\nvalue = [4, 62, 1, 0, 11]\nclass = fog", fillcolor="#9beb68"] ;
12 -> 14 ;
15 [label="temp_max <= 13.718\ngini = 0.419\nsamples = 61\nvalue = [4, 45, 1, 0, 11]\nclass = fog", fillcolor="#a5ed78"] ;
14 -> 15 ;
16 [label="temp_max <= 7.818\ngini = 0.292\nsamples = 52\nvalue = [0, 43, 1, 0, 8]\nclass = fog", fillcolor="#96ea62"] ;
15 -> 16 ;
17 [label="temp_max <= 6.506\ngini = 0.48\nsamples = 10\nvalue = [0, 6, 0, 0, 4]\nclass = fog", fillcolor="#d3f6bd"] ;
16 -> 17 ;
18 [label="gini = 0.0\nsamples = 4\nvalue = [0, 4, 0, 0, 0]\nclass = fog", fillcolor="#7be539"] ;
17 -> 18 ;
19 [label="wind <= 1.232\ngini = 0.444\nsamples = 6\nvalue = [0, 2, 0, 0, 4]\nclass = sun", fillcolor="#f29ce0"] ;
17 -> 19 ;
20 [label="gini = 0.0\nsamples = 3\nvalue = [0, 0, 0, 0, 3]\nclass = sun", fillcolor="#e539c0"] ;
19 -> 20 ;
21 [label="temp_max <= 7.54\ngini = 0.444\nsamples = 3\nvalue = [0, 2, 0, 0, 1]\nclass = fog", fillcolor="#bdf29c"] ;
19 -> 21 ;
22 [label="gini = 0.0\nsamples = 2\nvalue = [0, 2, 0, 0, 0]\nclass = fog", fillcolor="#7be539"] ;
21 -> 22 ;
23 [label="gini = 0.0\nsamples = 1\nvalue = [0, 0, 0, 0, 1]\nclass = sun", fillcolor="#e539c0"] ;
21 -> 23 ;
24 [label="temp_min <= 0.617\ngini = 0.214\nsamples = 42\nvalue = [0, 37, 1, 0, 4]\nclass = fog", fillcolor="#8ce853"] ;
16 -> 24 ;
25 [label="temp_max <= 10.0\ngini = 0.5\nsamples = 2\nvalue = [0, 1, 0, 0, 1]\nclass = fog", fillcolor="#ffffff"] ;
24 -> 25 ;
26 [label="gini = 0.0\nsamples = 1\nvalue = [0, 0, 0, 0, 1]\nclass = sun", fillcolor="#e539c0"] ;
25 -> 26 ;
27 [label="gini = 0.0\nsamples = 1\nvalue = [0, 1, 0, 0, 0]\nclass = fog", fillcolor="#7be539"] ;
25 -> 27 ;
28 [label="temp_min <= 7.005\ngini = 0.184\nsamples = 40\nvalue = [0, 36, 1, 0, 3]\nclass = fog", fillcolor="#89e84e"] ;
24 -> 28 ;
29 [label="temp_min <= 3.971\ngini = 0.148\nsamples = 38\nvalue = [0, 35, 1, 0, 2]\nclass = fog", fillcolor="#86e74a"] ;
28 -> 29 ;
30 [label="temp_min <= 2.413\ngini = 0.265\nsamples = 20\nvalue = [0, 17, 1, 0, 2]\nclass = fog", fillcolor="#91e95a"] ;
29 -> 30 ;
31 [label="gini = 0.0\nsamples = 14\nvalue = [0, 14, 0, 0, 0]\nclass = fog", fillcolor="#7be539"] ;
30 -> 31 ;
32 [label="temp_min <= 3.467\ngini = 0.611\nsamples = 6\nvalue = [0, 3, 1, 0, 2]\nclass = fog", fillcolor="#def8ce"] ;
30 -> 32 ;
33 [label="gini = 0.0\nsamples = 2\nvalue = [0, 0, 0, 0, 2]\nclass = sun", fillcolor="#e539c0"] ;
32 -> 33 ;
34 [label="temp_max <= 9.184\ngini = 0.375\nsamples = 4\nvalue = [0, 3, 1, 0, 0]\nclass = fog", fillcolor="#a7ee7b"] ;
32 -> 34 ;
35 [label="gini = 0.0\nsamples = 1\nvalue = [0, 0, 1, 0, 0]\nclass = rain", fillcolor="#39e5c5"] ;
34 -> 35 ;
36 [label="gini = 0.0\nsamples = 3\nvalue = [0, 3, 0, 0, 0]\nclass = fog", fillcolor="#7be539"] ;
34 -> 36 ;
37 [label="gini = 0.0\nsamples = 18\nvalue = [0, 18, 0, 0, 0]\nclass = fog", fillcolor="#7be539"] ;
29 -> 37 ;
38 [label="temp_max <= 11.95\ngini = 0.5\nsamples = 2\nvalue = [0, 1, 0, 0, 1]\nclass = fog", fillcolor="#ffffff"] ;
28 -> 38 ;
39 [label="gini = 0.0\nsamples = 1\nvalue = [0, 1, 0, 0, 0]\nclass = fog", fillcolor="#7be539"] ;
38 -> 39 ;
40 [label="gini = 0.0\nsamples = 1\nvalue = [0, 0, 0, 0, 1]\nclass = sun", fillcolor="#e539c0"] ;
38 -> 40 ;
41 [label="temp_max <= 14.331\ngini = 0.642\nsamples = 9\nvalue = [4, 2, 0, 0, 3]\nclass = drizzle", fillcolor="#fbeade"] ;
15 -> 41 ;
42 [label="gini = 0.0\nsamples = 4\nvalue = [4, 0, 0, 0, 0]\nclass = drizzle", fillcolor="#e58139"] ;
41 -> 42 ;
43 [label="temp_min <= 6.95\ngini = 0.48\nsamples = 5\nvalue = [0, 2, 0, 0, 3]\nclass = sun", fillcolor="#f6bdea"] ;
41 -> 43 ;
44 [label="gini = 0.0\nsamples = 2\nvalue = [0, 0, 0, 0, 2]\nclass = sun", fillcolor="#e539c0"] ;
43 -> 44 ;
45 [label="temp_min <= 8.617\ngini = 0.444\nsamples = 3\nvalue = [0, 2, 0, 0, 1]\nclass = fog", fillcolor="#bdf29c"] ;
43 -> 45 ;
46 [label="gini = 0.0\nsamples = 2\nvalue = [0, 2, 0, 0, 0]\nclass = fog", fillcolor="#7be539"] ;
45 -> 46 ;
47 [label="gini = 0.0\nsamples = 1\nvalue = [0, 0, 0, 0, 1]\nclass = sun", fillcolor="#e539c0"] ;
45 -> 47 ;
48 [label="gini = 0.0\nsamples = 17\nvalue = [0, 17, 0, 0, 0]\nclass = fog", fillcolor="#7be539"] ;
14 -> 48 ;
49 [label="temp_min <= 11.1\ngini = 0.219\nsamples = 8\nvalue = [0, 0, 1, 0, 7]\nclass = sun", fillcolor="#e955c9"] ;
3 -> 49 ;
50 [label="gini = 0.0\nsamples = 5\nvalue = [0, 0, 0, 0, 5]\nclass = sun", fillcolor="#e539c0"] ;
49 -> 50 ;
51 [label="wind <= 1.15\ngini = 0.444\nsamples = 3\nvalue = [0, 0, 1, 0, 2]\nclass = sun", fillcolor="#f29ce0"] ;
49 -> 51 ;
52 [label="gini = 0.0\nsamples = 1\nvalue = [0, 0, 1, 0, 0]\nclass = rain", fillcolor="#39e5c5"] ;
51 -> 52 ;
53 [label="gini = 0.0\nsamples = 2\nvalue = [0, 0, 0, 0, 2]\nclass = sun", fillcolor="#e539c0"] ;
51 -> 53 ;
54 [label="temp_min <= 13.891\ngini = 0.656\nsamples = 679\nvalue = [294, 218, 10, 0, 157]\nclass = drizzle", fillcolor="#fbeade"] ;
2 -> 54 ;
55 [label="temp_max <= 4.867\ngini = 0.636\nsamples = 609\nvalue = [288, 195, 8, 0, 118]\nclass = drizzle", fillcolor="#f9e3d3"] ;
54 -> 55 ;
56 [label="gini = 0.0\nsamples = 29\nvalue = [29, 0, 0, 0, 0]\nclass = drizzle", fillcolor="#e58139"] ;
55 -> 56 ;
57 [label="temp_min <= 12.279\ngini = 0.646\nsamples = 580\nvalue = [259, 195, 8, 0, 118]\nclass = drizzle", fillcolor="#fbeade"] ;
55 -> 57 ;
58 [label="temp_min <= 2.893\ngini = 0.658\nsamples = 474\nvalue = [189, 175, 8, 0, 102]\nclass = drizzle", fillcolor="#fef9f6"] ;
57 -> 58 ;
59 [label="wind <= 1.769\ngini = 0.572\nsamples = 97\nvalue = [57, 17, 1, 0, 22]\nclass = drizzle", fillcolor="#f3c4a3"] ;
58 -> 59 ;
60 [label="temp_min <= 1.681\ngini = 0.541\nsamples = 14\nvalue = [0, 8, 1, 0, 5]\nclass = fog", fillcolor="#d3f6bd"] ;
59 -> 60 ;
61 [label="temp_max <= 6.431\ngini = 0.245\nsamples = 7\nvalue = [0, 6, 0, 0, 1]\nclass = fog", fillcolor="#91e95a"] ;
60 -> 61 ;
62 [label="temp_min <= 1.131\ngini = 0.5\nsamples = 2\nvalue = [0, 1, 0, 0, 1]\nclass = fog", fillcolor="#ffffff"] ;
61 -> 62 ;
63 [label="gini = 0.0\nsamples = 1\nvalue = [0, 0, 0, 0, 1]\nclass = sun", fillcolor="#e539c0"] ;
62 -> 63 ;
64 [label="gini = 0.0\nsamples = 1\nvalue = [0, 1, 0, 0, 0]\nclass = fog", fillcolor="#7be539"] ;
62 -> 64 ;
65 [label="gini = 0.0\nsamples = 5\nvalue = [0, 5, 0, 0, 0]\nclass = fog", fillcolor="#7be539"] ;
61 -> 65 ;
66 [label="temp_max <= 7.68\ngini = 0.571\nsamples = 7\nvalue = [0, 2, 1, 0, 4]\nclass = sun", fillcolor="#f5b0e6"] ;
60 -> 66 ;
67 [label="gini = 0.0\nsamples = 2\nvalue = [0, 2, 0, 0, 0]\nclass = fog", fillcolor="#7be539"] ;
66 -> 67 ;
68 [label="temp_min <= 2.5\ngini = 0.32\nsamples = 5\nvalue = [0, 0, 1, 0, 4]\nclass = sun", fillcolor="#ec6ad0"] ;
66 -> 68 ;
69 [label="gini = 0.0\nsamples = 3\nvalue = [0, 0, 0, 0, 3]\nclass = sun", fillcolor="#e539c0"] ;
68 -> 69 ;
70 [label="temp_max <= 8.6\ngini = 0.5\nsamples = 2\nvalue = [0, 0, 1, 0, 1]\nclass = rain", fillcolor="#ffffff"] ;
68 -> 70 ;
71 [label="gini = 0.0\nsamples = 1\nvalue = [0, 0, 0, 0, 1]\nclass = sun", fillcolor="#e539c0"] ;
70 -> 71 ;
72 [label="gini = 0.0\nsamples = 1\nvalue = [0, 0, 1, 0, 0]\nclass = rain", fillcolor="#39e5c5"] ;
70 -> 72 ;
73 [label="temp_min <= 1.174\ngini = 0.475\nsamples = 83\nvalue = [57, 9, 0, 0, 17]\nclass = drizzle", fillcolor="#efb387"] ;
59 -> 73 ;
74 [label="temp_max <= 7.794\ngini = 0.594\nsamples = 21\nvalue = [7, 3, 0, 0, 11]\nclass = sun", fillcolor="#f8c6ed"] ;
73 -> 74 ;
75 [label="wind <= 1.984\ngini = 0.569\nsamples = 12\nvalue = [7, 3, 0, 0, 2]\nclass = drizzle", fillcolor="#f3c7a7"] ;
74 -> 75 ;
76 [label="gini = 0.0\nsamples = 7\nvalue = [7, 0, 0, 0, 0]\nclass = drizzle", fillcolor="#e58139"] ;
75 -> 76 ;
77 [label="temp_min <= 0.02\ngini = 0.48\nsamples = 5\nvalue = [0, 3, 0, 0, 2]\nclass = fog", fillcolor="#d3f6bd"] ;
75 -> 77 ;
78 [label="gini = 0.0\nsamples = 2\nvalue = [0, 0, 0, 0, 2]\nclass = sun", fillcolor="#e539c0"] ;
77 -> 78 ;
79 [label="gini = 0.0\nsamples = 3\nvalue = [0, 3, 0, 0, 0]\nclass = fog", fillcolor="#7be539"] ;
77 -> 79 ;
80 [label="gini = 0.0\nsamples = 9\nvalue = [0, 0, 0, 0, 9]\nclass = sun", fillcolor="#e539c0"] ;
74 -> 80 ;
81 [label="temp_max <= 14.356\ngini = 0.331\nsamples = 62\nvalue = [50, 6, 0, 0, 6]\nclass = drizzle", fillcolor="#eb9c63"] ;
73 -> 81 ;
82 [label="temp_min <= 2.742\ngini = 0.291\nsamples = 60\nvalue = [50, 6, 0, 0, 4]\nclass = drizzle", fillcolor="#ea985e"] ;
81 -> 82 ;
83 [label="temp_min <= 1.718\ngini = 0.168\nsamples = 44\nvalue = [40, 3, 0, 0, 1]\nclass = drizzle", fillcolor="#e88d4c"] ;
82 -> 83 ;
84 [label="wind <= 2.115\ngini = 0.397\nsamples = 11\nvalue = [8, 3, 0, 0, 0]\nclass = drizzle", fillcolor="#efb083"] ;
83 -> 84 ;
85 [label="temp_max <= 6.296\ngini = 0.219\nsamples = 8\nvalue = [7, 1, 0, 0, 0]\nclass = drizzle", fillcolor="#e99355"] ;
84 -> 85 ;
86 [label="wind <= 1.988\ngini = 0.5\nsamples = 2\nvalue = [1, 1, 0, 0, 0]\nclass = drizzle", fillcolor="#ffffff"] ;
85 -> 86 ;
87 [label="gini = 0.0\nsamples = 1\nvalue = [0, 1, 0, 0, 0]\nclass = fog", fillcolor="#7be539"] ;
86 -> 87 ;
88 [label="gini = 0.0\nsamples = 1\nvalue = [1, 0, 0, 0, 0]\nclass = drizzle", fillcolor="#e58139"] ;
86 -> 88 ;
89 [label="gini = 0.0\nsamples = 6\nvalue = [6, 0, 0, 0, 0]\nclass = drizzle", fillcolor="#e58139"] ;
85 -> 89 ;
90 [label="wind <= 2.44\ngini = 0.444\nsamples = 3\nvalue = [1, 2, 0, 0, 0]\nclass = fog", fillcolor="#bdf29c"] ;
84 -> 90 ;
91 [label="gini = 0.0\nsamples = 2\nvalue = [0, 2, 0, 0, 0]\nclass = fog", fillcolor="#7be539"] ;
90 -> 91 ;
92 [label="gini = 0.0\nsamples = 1\nvalue = [1, 0, 0, 0, 0]\nclass = drizzle", fillcolor="#e58139"] ;
90 -> 92 ;
93 [label="wind <= 1.918\ngini = 0.059\nsamples = 33\nvalue = [32, 0, 0, 0, 1]\nclass = drizzle", fillcolor="#e6853f"] ;
83 -> 93 ;
94 [label="temp_max <= 10.216\ngini = 0.444\nsamples = 3\nvalue = [2, 0, 0, 0, 1]\nclass = drizzle", fillcolor="#f2c09c"] ;
93 -> 94 ;
95 [label="gini = 0.0\nsamples = 2\nvalue = [2, 0, 0, 0, 0]\nclass = drizzle", fillcolor="#e58139"] ;
94 -> 95 ;
96 [label="gini = 0.0\nsamples = 1\nvalue = [0, 0, 0, 0, 1]\nclass = sun", fillcolor="#e539c0"] ;
94 -> 96 ;
97 [label="gini = 0.0\nsamples = 30\nvalue = [30, 0, 0, 0, 0]\nclass = drizzle", fillcolor="#e58139"] ;
93 -> 97 ;
98 [label="temp_min <= 2.746\ngini = 0.539\nsamples = 16\nvalue = [10, 3, 0, 0, 3]\nclass = drizzle", fillcolor="#f1bb94"] ;
82 -> 98 ;
99 [label="gini = 0.0\nsamples = 1\nvalue = [0, 1, 0, 0, 0]\nclass = fog", fillcolor="#7be539"] ;
98 -> 99 ;
100 [label="temp_max <= 5.85\ngini = 0.498\nsamples = 15\nvalue = [10, 2, 0, 0, 3]\nclass = drizzle", fillcolor="#f0b68c"] ;
98 -> 100 ;
101 [label="gini = 0.0\nsamples = 1\nvalue = [0, 0, 0, 0, 1]\nclass = sun", fillcolor="#e539c0"] ;
100 -> 101 ;
102 [label="wind <= 2.209\ngini = 0.449\nsamples = 14\nvalue = [10, 2, 0, 0, 2]\nclass = drizzle", fillcolor="#eeab7b"] ;
100 -> 102 ;
103 [label="temp_max <= 7.202\ngini = 0.625\nsamples = 8\nvalue = [4, 2, 0, 0, 2]\nclass = drizzle", fillcolor="#f6d5bd"] ;
102 -> 103 ;
104 [label="gini = 0.0\nsamples = 4\nvalue = [4, 0, 0, 0, 0]\nclass = drizzle", fillcolor="#e58139"] ;
103 -> 104 ;
105 [label="temp_max <= 8.9\ngini = 0.5\nsamples = 4\nvalue = [0, 2, 0, 0, 2]\nclass = fog", fillcolor="#ffffff"] ;
103 -> 105 ;
106 [label="gini = 0.0\nsamples = 2\nvalue = [0, 2, 0, 0, 0]\nclass = fog", fillcolor="#7be539"] ;
105 -> 106 ;
107 [label="gini = 0.0\nsamples = 2\nvalue = [0, 0, 0, 0, 2]\nclass = sun", fillcolor="#e539c0"] ;
105 -> 107 ;
108 [label="gini = 0.0\nsamples = 6\nvalue = [6, 0, 0, 0, 0]\nclass = drizzle", fillcolor="#e58139"] ;
102 -> 108 ;
109 [label="gini = 0.0\nsamples = 2\nvalue = [0, 0, 0, 0, 2]\nclass = sun", fillcolor="#e539c0"] ;
81 -> 109 ;
110 [label="temp_max <= 18.183\ngini = 0.656\nsamples = 377\nvalue = [132, 158, 7, 0, 80]\nclass = fog", fillcolor="#f1fcea"] ;
58 -> 110 ;
111 [label="wind <= 1.697\ngini = 0.598\nsamples = 211\nvalue = [67, 112, 3, 0, 29]\nclass = fog", fillcolor="#d6f7c1"] ;
110 -> 111 ;
112 [label="temp_max <= 10.118\ngini = 0.576\nsamples = 52\nvalue = [29, 16, 0, 0, 7]\nclass = drizzle", fillcolor="#f6d2b8"] ;
111 -> 112 ;
113 [label="gini = 0.0\nsamples = 3\nvalue = [0, 3, 0, 0, 0]\nclass = fog", fillcolor="#7be539"] ;
112 -> 113 ;
114 [label="wind <= 1.606\ngini = 0.559\nsamples = 49\nvalue = [29, 13, 0, 0, 7]\nclass = drizzle", fillcolor="#f3c7a7"] ;
112 -> 114 ;
115 [label="temp_min <= 6.791\ngini = 0.641\nsamples = 31\nvalue = [14, 10, 0, 0, 7]\nclass = drizzle", fillcolor="#fae7d9"] ;
114 -> 115 ;
116 [label="temp_max <= 14.171\ngini = 0.579\nsamples = 11\nvalue = [1, 5, 0, 0, 5]\nclass = fog", fillcolor="#ffffff"] ;
115 -> 116 ;
117 [label="temp_min <= 4.141\ngini = 0.449\nsamples = 7\nvalue = [1, 5, 0, 0, 1]\nclass = fog", fillcolor="#a7ee7b"] ;
116 -> 117 ;
118 [label="gini = 0.0\nsamples = 1\nvalue = [1, 0, 0, 0, 0]\nclass = drizzle", fillcolor="#e58139"] ;
117 -> 118 ;
119 [label="temp_min <= 6.148\ngini = 0.278\nsamples = 6\nvalue = [0, 5, 0, 0, 1]\nclass = fog", fillcolor="#95ea61"] ;
117 -> 119 ;
120 [label="gini = 0.0\nsamples = 5\nvalue = [0, 5, 0, 0, 0]\nclass = fog", fillcolor="#7be539"] ;
119 -> 120 ;
121 [label="gini = 0.0\nsamples = 1\nvalue = [0, 0, 0, 0, 1]\nclass = sun", fillcolor="#e539c0"] ;
119 -> 121 ;
122 [label="gini = 0.0\nsamples = 4\nvalue = [0, 0, 0, 0, 4]\nclass = sun", fillcolor="#e539c0"] ;
116 -> 122 ;
123 [label="temp_max <= 14.96\ngini = 0.505\nsamples = 20\nvalue = [13, 5, 0, 0, 2]\nclass = drizzle", fillcolor="#f1bc95"] ;
115 -> 123 ;
124 [label="temp_max <= 11.142\ngini = 0.142\nsamples = 13\nvalue = [12, 0, 0, 0, 1]\nclass = drizzle", fillcolor="#e78c49"] ;
123 -> 124 ;
125 [label="gini = 0.0\nsamples = 1\nvalue = [0, 0, 0, 0, 1]\nclass = sun", fillcolor="#e539c0"] ;
124 -> 125 ;
126 [label="gini = 0.0\nsamples = 12\nvalue = [12, 0, 0, 0, 0]\nclass = drizzle", fillcolor="#e58139"] ;
124 -> 126 ;
127 [label="wind <= 1.577\ngini = 0.449\nsamples = 7\nvalue = [1, 5, 0, 0, 1]\nclass = fog", fillcolor="#a7ee7b"] ;
123 -> 127 ;
128 [label="gini = 0.0\nsamples = 5\nvalue = [0, 5, 0, 0, 0]\nclass = fog", fillcolor="#7be539"] ;
127 -> 128 ;
129 [label="temp_max <= 16.4\ngini = 0.5\nsamples = 2\nvalue = [1, 0, 0, 0, 1]\nclass = drizzle", fillcolor="#ffffff"] ;
127 -> 129 ;
130 [label="gini = 0.0\nsamples = 1\nvalue = [1, 0, 0, 0, 0]\nclass = drizzle", fillcolor="#e58139"] ;
129 -> 130 ;
131 [label="gini = 0.0\nsamples = 1\nvalue = [0, 0, 0, 0, 1]\nclass = sun", fillcolor="#e539c0"] ;
129 -> 131 ;
132 [label="temp_min <= 4.539\ngini = 0.278\nsamples = 18\nvalue = [15, 3, 0, 0, 0]\nclass = drizzle", fillcolor="#ea9a61"] ;
114 -> 132 ;
133 [label="gini = 0.0\nsamples = 8\nvalue = [8, 0, 0, 0, 0]\nclass = drizzle", fillcolor="#e58139"] ;
132 -> 133 ;
134 [label="temp_max <= 12.991\ngini = 0.42\nsamples = 10\nvalue = [7, 3, 0, 0, 0]\nclass = drizzle", fillcolor="#f0b78e"] ;
132 -> 134 ;
135 [label="gini = 0.0\nsamples = 2\nvalue = [0, 2, 0, 0, 0]\nclass = fog", fillcolor="#7be539"] ;
134 -> 135 ;
136 [label="temp_max <= 16.105\ngini = 0.219\nsamples = 8\nvalue = [7, 1, 0, 0, 0]\nclass = drizzle", fillcolor="#e99355"] ;
134 -> 136 ;
137 [label="temp_min <= 7.425\ngini = 0.444\nsamples = 3\nvalue = [2, 1, 0, 0, 0]\nclass = drizzle", fillcolor="#f2c09c"] ;
136 -> 137 ;
138 [label="gini = 0.0\nsamples = 2\nvalue = [2, 0, 0, 0, 0]\nclass = drizzle", fillcolor="#e58139"] ;
137 -> 138 ;
139 [label="gini = 0.0\nsamples = 1\nvalue = [0, 1, 0, 0, 0]\nclass = fog", fillcolor="#7be539"] ;
137 -> 139 ;
140 [label="gini = 0.0\nsamples = 5\nvalue = [5, 0, 0, 0, 0]\nclass = drizzle", fillcolor="#e58139"] ;
136 -> 140 ;
141 [label="temp_max <= 13.642\ngini = 0.559\nsamples = 159\nvalue = [38, 96, 3, 0, 22]\nclass = fog", fillcolor="#c0f3a0"] ;
111 -> 141 ;
142 [label="wind <= 2.195\ngini = 0.66\nsamples = 59\nvalue = [18, 27, 3, 0, 11]\nclass = fog", fillcolor="#e2f9d4"] ;
141 -> 142 ;
143 [label="wind <= 2.054\ngini = 0.561\nsamples = 32\nvalue = [9, 19, 2, 0, 2]\nclass = fog", fillcolor="#c6f4a9"] ;
142 -> 143 ;
144 [label="temp_max <= 11.611\ngini = 0.618\nsamples = 26\nvalue = [9, 13, 2, 0, 2]\nclass = fog", fillcolor="#e0f9d0"] ;
143 -> 144 ;
145 [label="temp_max <= 10.078\ngini = 0.637\nsamples = 17\nvalue = [8, 6, 2, 0, 1]\nclass = drizzle", fillcolor="#fae8db"] ;
144 -> 145 ;
146 [label="temp_min <= 3.799\ngini = 0.628\nsamples = 11\nvalue = [2, 6, 2, 0, 1]\nclass = fog", fillcolor="#c4f3a7"] ;
145 -> 146 ;
147 [label="wind <= 1.987\ngini = 0.494\nsamples = 9\nvalue = [2, 6, 0, 0, 1]\nclass = fog", fillcolor="#b4f08e"] ;
146 -> 147 ;
148 [label="gini = 0.0\nsamples = 5\nvalue = [0, 5, 0, 0, 0]\nclass = fog", fillcolor="#7be539"] ;
147 -> 148 ;
149 [label="temp_max <= 8.696\ngini = 0.625\nsamples = 4\nvalue = [2, 1, 0, 0, 1]\nclass = drizzle", fillcolor="#f6d5bd"] ;
147 -> 149 ;
150 [label="wind <= 2.017\ngini = 0.5\nsamples = 2\nvalue = [0, 1, 0, 0, 1]\nclass = fog", fillcolor="#ffffff"] ;
149 -> 150 ;
151 [label="gini = 0.0\nsamples = 1\nvalue = [0, 0, 0, 0, 1]\nclass = sun", fillcolor="#e539c0"] ;
150 -> 151 ;
152 [label="gini = 0.0\nsamples = 1\nvalue = [0, 1, 0, 0, 0]\nclass = fog", fillcolor="#7be539"] ;
150 -> 152 ;
153 [label="gini = 0.0\nsamples = 2\nvalue = [2, 0, 0, 0, 0]\nclass = drizzle", fillcolor="#e58139"] ;
149 -> 153 ;
154 [label="gini = 0.0\nsamples = 2\nvalue = [0, 0, 2, 0, 0]\nclass = rain", fillcolor="#39e5c5"] ;
146 -> 154 ;
155 [label="gini = 0.0\nsamples = 6\nvalue = [6, 0, 0, 0, 0]\nclass = drizzle", fillcolor="#e58139"] ;
145 -> 155 ;
156 [label="wind <= 1.823\ngini = 0.37\nsamples = 9\nvalue = [1, 7, 0, 0, 1]\nclass = fog", fillcolor="#9cec6a"] ;
144 -> 156 ;
157 [label="temp_min <= 7.136\ngini = 0.219\nsamples = 8\nvalue = [0, 7, 0, 0, 1]\nclass = fog", fillcolor="#8ee955"] ;
156 -> 157 ;
158 [label="gini = 0.0\nsamples = 7\nvalue = [0, 7, 0, 0, 0]\nclass = fog", fillcolor="#7be539"] ;
157 -> 158 ;
159 [label="gini = 0.0\nsamples = 1\nvalue = [0, 0, 0, 0, 1]\nclass = sun", fillcolor="#e539c0"] ;
157 -> 159 ;
160 [label="gini = 0.0\nsamples = 1\nvalue = [1, 0, 0, 0, 0]\nclass = drizzle", fillcolor="#e58139"] ;
156 -> 160 ;
161 [label="gini = 0.0\nsamples = 6\nvalue = [0, 6, 0, 0, 0]\nclass = fog", fillcolor="#7be539"] ;
143 -> 161 ;
162 [label="temp_min <= 6.519\ngini = 0.689\nsamples = 27\nvalue = [9, 8, 1, 0, 9]\nclass = drizzle", fillcolor="#ffffff"] ;
142 -> 162 ;
163 [label="wind <= 2.416\ngini = 0.626\nsamples = 19\nvalue = [9, 2, 1, 0, 7]\nclass = drizzle", fillcolor="#fbeade"] ;
162 -> 163 ;
164 [label="wind <= 2.285\ngini = 0.663\nsamples = 13\nvalue = [4, 2, 1, 0, 6]\nclass = sun", fillcolor="#f9d3f1"] ;
163 -> 164 ;
165 [label="wind <= 2.201\ngini = 0.375\nsamples = 4\nvalue = [3, 0, 0, 0, 1]\nclass = drizzle", fillcolor="#eeab7b"] ;
164 -> 165 ;
166 [label="gini = 0.0\nsamples = 1\nvalue = [0, 0, 0, 0, 1]\nclass = sun", fillcolor="#e539c0"] ;
165 -> 166 ;
167 [label="gini = 0.0\nsamples = 3\nvalue = [3, 0, 0, 0, 0]\nclass = drizzle", fillcolor="#e58139"] ;
165 -> 167 ;
168 [label="temp_max <= 11.33\ngini = 0.617\nsamples = 9\nvalue = [1, 2, 1, 0, 5]\nclass = sun", fillcolor="#f4aae4"] ;
164 -> 168 ;
169 [label="temp_min <= 4.93\ngini = 0.5\nsamples = 2\nvalue = [0, 1, 1, 0, 0]\nclass = fog", fillcolor="#ffffff"] ;
168 -> 169 ;
170 [label="gini = 0.0\nsamples = 1\nvalue = [0, 1, 0, 0, 0]\nclass = fog", fillcolor="#7be539"] ;
169 -> 170 ;
171 [label="gini = 0.0\nsamples = 1\nvalue = [0, 0, 1, 0, 0]\nclass = rain", fillcolor="#39e5c5"] ;
169 -> 171 ;
172 [label="temp_max <= 13.437\ngini = 0.449\nsamples = 7\nvalue = [1, 1, 0, 0, 5]\nclass = sun", fillcolor="#ee7bd5"] ;
168 -> 172 ;
173 [label="temp_max <= 13.05\ngini = 0.278\nsamples = 6\nvalue = [1, 0, 0, 0, 5]\nclass = sun", fillcolor="#ea61cd"] ;
172 -> 173 ;
174 [label="gini = 0.0\nsamples = 3\nvalue = [0, 0, 0, 0, 3]\nclass = sun", fillcolor="#e539c0"] ;
173 -> 174 ;
175 [label="wind <= 2.35\ngini = 0.444\nsamples = 3\nvalue = [1, 0, 0, 0, 2]\nclass = sun", fillcolor="#f29ce0"] ;
173 -> 175 ;
176 [label="gini = 0.0\nsamples = 1\nvalue = [0, 0, 0, 0, 1]\nclass = sun", fillcolor="#e539c0"] ;
175 -> 176 ;
177 [label="temp_min <= 5.3\ngini = 0.5\nsamples = 2\nvalue = [1, 0, 0, 0, 1]\nclass = drizzle", fillcolor="#ffffff"] ;
175 -> 177 ;
178 [label="gini = 0.0\nsamples = 1\nvalue = [1, 0, 0, 0, 0]\nclass = drizzle", fillcolor="#e58139"] ;
177 -> 178 ;
179 [label="gini = 0.0\nsamples = 1\nvalue = [0, 0, 0, 0, 1]\nclass = sun", fillcolor="#e539c0"] ;
177 -> 179 ;
180 [label="gini = 0.0\nsamples = 1\nvalue = [0, 1, 0, 0, 0]\nclass = fog", fillcolor="#7be539"] ;
172 -> 180 ;
181 [label="temp_max <= 9.186\ngini = 0.278\nsamples = 6\nvalue = [5, 0, 0, 0, 1]\nclass = drizzle", fillcolor="#ea9a61"] ;
163 -> 181 ;
182 [label="gini = 0.0\nsamples = 1\nvalue = [0, 0, 0, 0, 1]\nclass = sun", fillcolor="#e539c0"] ;
181 -> 182 ;
183 [label="gini = 0.0\nsamples = 5\nvalue = [5, 0, 0, 0, 0]\nclass = drizzle", fillcolor="#e58139"] ;
181 -> 183 ;
184 [label="temp_max <= 12.178\ngini = 0.375\nsamples = 8\nvalue = [0, 6, 0, 0, 2]\nclass = fog", fillcolor="#a7ee7b"] ;
162 -> 184 ;
185 [label="gini = 0.0\nsamples = 2\nvalue = [0, 0, 0, 0, 2]\nclass = sun", fillcolor="#e539c0"] ;
184 -> 185 ;
186 [label="gini = 0.0\nsamples = 6\nvalue = [0, 6, 0, 0, 0]\nclass = fog", fillcolor="#7be539"] ;
184 -> 186 ;
187 [label="temp_min <= 7.044\ngini = 0.472\nsamples = 100\nvalue = [20, 69, 0, 0, 11]\nclass = fog", fillcolor="#aeef86"] ;
141 -> 187 ;
188 [label="temp_max <= 17.145\ngini = 0.233\nsamples = 54\nvalue = [2, 47, 0, 0, 5]\nclass = fog", fillcolor="#8ee955"] ;
187 -> 188 ;
189 [label="temp_min <= 4.842\ngini = 0.181\nsamples = 51\nvalue = [2, 46, 0, 0, 3]\nclass = fog", fillcolor="#89e84e"] ;
188 -> 189 ;
190 [label="gini = 0.0\nsamples = 26\nvalue = [0, 26, 0, 0, 0]\nclass = fog", fillcolor="#7be539"] ;
189 -> 190 ;
191 [label="temp_max <= 14.7\ngini = 0.339\nsamples = 25\nvalue = [2, 20, 0, 0, 3]\nclass = fog", fillcolor="#99eb66"] ;
189 -> 191 ;
192 [label="temp_min <= 5.73\ngini = 0.444\nsamples = 3\nvalue = [2, 0, 0, 0, 1]\nclass = drizzle", fillcolor="#f2c09c"] ;
191 -> 192 ;
193 [label="gini = 0.0\nsamples = 1\nvalue = [0, 0, 0, 0, 1]\nclass = sun", fillcolor="#e539c0"] ;
192 -> 193 ;
194 [label="gini = 0.0\nsamples = 2\nvalue = [2, 0, 0, 0, 0]\nclass = drizzle", fillcolor="#e58139"] ;
192 -> 194 ;
195 [label="temp_min <= 5.02\ngini = 0.165\nsamples = 22\nvalue = [0, 20, 0, 0, 2]\nclass = fog", fillcolor="#88e84d"] ;
191 -> 195 ;
196 [label="gini = 0.0\nsamples = 1\nvalue = [0, 0, 0, 0, 1]\nclass = sun", fillcolor="#e539c0"] ;
195 -> 196 ;
197 [label="temp_max <= 16.665\ngini = 0.091\nsamples = 21\nvalue = [0, 20, 0, 0, 1]\nclass = fog", fillcolor="#82e643"] ;
195 -> 197 ;
198 [label="gini = 0.0\nsamples = 20\nvalue = [0, 20, 0, 0, 0]\nclass = fog", fillcolor="#7be539"] ;
197 -> 198 ;
199 [label="gini = 0.0\nsamples = 1\nvalue = [0, 0, 0, 0, 1]\nclass = sun", fillcolor="#e539c0"] ;
197 -> 199 ;
200 [label="temp_min <= 5.0\ngini = 0.444\nsamples = 3\nvalue = [0, 1, 0, 0, 2]\nclass = sun", fillcolor="#f29ce0"] ;
188 -> 200 ;
201 [label="gini = 0.0\nsamples = 1\nvalue = [0, 1, 0, 0, 0]\nclass = fog", fillcolor="#7be539"] ;
200 -> 201 ;
202 [label="gini = 0.0\nsamples = 2\nvalue = [0, 0, 0, 0, 2]\nclass = sun", fillcolor="#e539c0"] ;
200 -> 202 ;
203 [label="temp_max <= 15.558\ngini = 0.601\nsamples = 46\nvalue = [18, 22, 0, 0, 6]\nclass = fog", fillcolor="#ecfbe3"] ;
187 -> 203 ;
204 [label="temp_min <= 7.637\ngini = 0.29\nsamples = 18\nvalue = [1, 15, 0, 0, 2]\nclass = fog", fillcolor="#94ea5e"] ;
203 -> 204 ;
205 [label="gini = 0.0\nsamples = 1\nvalue = [0, 0, 0, 0, 1]\nclass = sun", fillcolor="#e539c0"] ;
204 -> 205 ;
206 [label="temp_min <= 8.369\ngini = 0.215\nsamples = 17\nvalue = [1, 15, 0, 0, 1]\nclass = fog", fillcolor="#8ce852"] ;
204 -> 206 ;
207 [label="temp_min <= 8.187\ngini = 0.5\nsamples = 2\nvalue = [1, 1, 0, 0, 0]\nclass = drizzle", fillcolor="#ffffff"] ;
206 -> 207 ;
208 [label="gini = 0.0\nsamples = 1\nvalue = [0, 1, 0, 0, 0]\nclass = fog", fillcolor="#7be539"] ;
207 -> 208 ;
209 [label="gini = 0.0\nsamples = 1\nvalue = [1, 0, 0, 0, 0]\nclass = drizzle", fillcolor="#e58139"] ;
207 -> 209 ;
210 [label="temp_max <= 13.929\ngini = 0.124\nsamples = 15\nvalue = [0, 14, 0, 0, 1]\nclass = fog", fillcolor="#84e747"] ;
206 -> 210 ;
211 [label="temp_min <= 9.341\ngini = 0.444\nsamples = 3\nvalue = [0, 2, 0, 0, 1]\nclass = fog", fillcolor="#bdf29c"] ;
210 -> 211 ;
212 [label="gini = 0.0\nsamples = 1\nvalue = [0, 0, 0, 0, 1]\nclass = sun", fillcolor="#e539c0"] ;
211 -> 212 ;
213 [label="gini = 0.0\nsamples = 2\nvalue = [0, 2, 0, 0, 0]\nclass = fog", fillcolor="#7be539"] ;
211 -> 213 ;
214 [label="gini = 0.0\nsamples = 12\nvalue = [0, 12, 0, 0, 0]\nclass = fog", fillcolor="#7be539"] ;
210 -> 214 ;
215 [label="temp_min <= 9.441\ngini = 0.548\nsamples = 28\nvalue = [17, 7, 0, 0, 4]\nclass = drizzle", fillcolor="#f3c3a1"] ;
203 -> 215 ;
216 [label="temp_min <= 7.936\ngini = 0.322\nsamples = 21\nvalue = [17, 1, 0, 0, 3]\nclass = drizzle", fillcolor="#eb9d65"] ;
215 -> 216 ;
217 [label="temp_min <= 7.402\ngini = 0.375\nsamples = 4\nvalue = [0, 1, 0, 0, 3]\nclass = sun", fillcolor="#ee7bd5"] ;
216 -> 217 ;
218 [label="gini = 0.0\nsamples = 2\nvalue = [0, 0, 0, 0, 2]\nclass = sun", fillcolor="#e539c0"] ;
217 -> 218 ;
219 [label="wind <= 1.961\ngini = 0.5\nsamples = 2\nvalue = [0, 1, 0, 0, 1]\nclass = fog", fillcolor="#ffffff"] ;
217 -> 219 ;
220 [label="gini = 0.0\nsamples = 1\nvalue = [0, 0, 0, 0, 1]\nclass = sun", fillcolor="#e539c0"] ;
219 -> 220 ;
221 [label="gini = 0.0\nsamples = 1\nvalue = [0, 1, 0, 0, 0]\nclass = fog", fillcolor="#7be539"] ;
219 -> 221 ;
222 [label="gini = 0.0\nsamples = 17\nvalue = [17, 0, 0, 0, 0]\nclass = drizzle", fillcolor="#e58139"] ;
216 -> 222 ;
223 [label="temp_min <= 11.212\ngini = 0.245\nsamples = 7\nvalue = [0, 6, 0, 0, 1]\nclass = fog", fillcolor="#91e95a"] ;
215 -> 223 ;
224 [label="gini = 0.0\nsamples = 6\nvalue = [0, 6, 0, 0, 0]\nclass = fog", fillcolor="#7be539"] ;
223 -> 224 ;
225 [label="gini = 0.0\nsamples = 1\nvalue = [0, 0, 0, 0, 1]\nclass = sun", fillcolor="#e539c0"] ;
223 -> 225 ;
226 [label="temp_max <= 19.88\ngini = 0.675\nsamples = 166\nvalue = [65, 46, 4, 0, 51]\nclass = drizzle", fillcolor="#fcf0e7"] ;
110 -> 226 ;
227 [label="temp_min <= 8.652\ngini = 0.491\nsamples = 55\nvalue = [37, 5, 1, 0, 12]\nclass = drizzle", fillcolor="#f0b68c"] ;
226 -> 227 ;
228 [label="wind <= 2.45\ngini = 0.278\nsamples = 6\nvalue = [0, 0, 1, 0, 5]\nclass = sun", fillcolor="#ea61cd"] ;
227 -> 228 ;
229 [label="gini = 0.0\nsamples = 5\nvalue = [0, 0, 0, 0, 5]\nclass = sun", fillcolor="#e539c0"] ;
228 -> 229 ;
230 [label="gini = 0.0\nsamples = 1\nvalue = [0, 0, 1, 0, 0]\nclass = rain", fillcolor="#39e5c5"] ;
228 -> 230 ;
231 [label="temp_min <= 9.977\ngini = 0.399\nsamples = 49\nvalue = [37, 5, 0, 0, 7]\nclass = drizzle", fillcolor="#eca572"] ;
227 -> 231 ;
232 [label="wind <= 2.368\ngini = 0.229\nsamples = 39\nvalue = [34, 4, 0, 0, 1]\nclass = drizzle", fillcolor="#e99355"] ;
231 -> 232 ;
233 [label="temp_min <= 9.892\ngini = 0.116\nsamples = 33\nvalue = [31, 1, 0, 0, 1]\nclass = drizzle", fillcolor="#e78945"] ;
232 -> 233 ;
234 [label="wind <= 1.809\ngini = 0.061\nsamples = 32\nvalue = [31, 0, 0, 0, 1]\nclass = drizzle", fillcolor="#e6853f"] ;
233 -> 234 ;
235 [label="wind <= 1.792\ngini = 0.153\nsamples = 12\nvalue = [11, 0, 0, 0, 1]\nclass = drizzle", fillcolor="#e78c4b"] ;
234 -> 235 ;
236 [label="gini = 0.0\nsamples = 11\nvalue = [11, 0, 0, 0, 0]\nclass = drizzle", fillcolor="#e58139"] ;
235 -> 236 ;
237 [label="gini = 0.0\nsamples = 1\nvalue = [0, 0, 0, 0, 1]\nclass = sun", fillcolor="#e539c0"] ;
235 -> 237 ;
238 [label="gini = 0.0\nsamples = 20\nvalue = [20, 0, 0, 0, 0]\nclass = drizzle", fillcolor="#e58139"] ;
234 -> 238 ;
239 [label="gini = 0.0\nsamples = 1\nvalue = [0, 1, 0, 0, 0]\nclass = fog", fillcolor="#7be539"] ;
233 -> 239 ;
240 [label="wind <= 2.412\ngini = 0.5\nsamples = 6\nvalue = [3, 3, 0, 0, 0]\nclass = drizzle", fillcolor="#ffffff"] ;
232 -> 240 ;
241 [label="gini = 0.0\nsamples = 1\nvalue = [0, 1, 0, 0, 0]\nclass = fog", fillcolor="#7be539"] ;
240 -> 241 ;
242 [label="temp_max <= 19.038\ngini = 0.48\nsamples = 5\nvalue = [3, 2, 0, 0, 0]\nclass = drizzle", fillcolor="#f6d5bd"] ;
240 -> 242 ;
243 [label="gini = 0.0\nsamples = 2\nvalue = [2, 0, 0, 0, 0]\nclass = drizzle", fillcolor="#e58139"] ;
242 -> 243 ;
244 [label="wind <= 2.463\ngini = 0.444\nsamples = 3\nvalue = [1, 2, 0, 0, 0]\nclass = fog", fillcolor="#bdf29c"] ;
242 -> 244 ;
245 [label="gini = 0.0\nsamples = 1\nvalue = [1, 0, 0, 0, 0]\nclass = drizzle", fillcolor="#e58139"] ;
244 -> 245 ;
246 [label="gini = 0.0\nsamples = 2\nvalue = [0, 2, 0, 0, 0]\nclass = fog", fillcolor="#7be539"] ;
244 -> 246 ;
247 [label="temp_min <= 11.408\ngini = 0.54\nsamples = 10\nvalue = [3, 1, 0, 0, 6]\nclass = sun", fillcolor="#f4aae4"] ;
231 -> 247 ;
248 [label="wind <= 2.45\ngini = 0.245\nsamples = 7\nvalue = [1, 0, 0, 0, 6]\nclass = sun", fillcolor="#e95acb"] ;
247 -> 248 ;
249 [label="gini = 0.0\nsamples = 6\nvalue = [0, 0, 0, 0, 6]\nclass = sun", fillcolor="#e539c0"] ;
248 -> 249 ;
250 [label="gini = 0.0\nsamples = 1\nvalue = [1, 0, 0, 0, 0]\nclass = drizzle", fillcolor="#e58139"] ;
248 -> 250 ;
251 [label="wind <= 2.133\ngini = 0.444\nsamples = 3\nvalue = [2, 1, 0, 0, 0]\nclass = drizzle", fillcolor="#f2c09c"] ;
247 -> 251 ;
252 [label="gini = 0.0\nsamples = 1\nvalue = [0, 1, 0, 0, 0]\nclass = fog", fillcolor="#7be539"] ;
251 -> 252 ;
253 [label="gini = 0.0\nsamples = 2\nvalue = [2, 0, 0, 0, 0]\nclass = drizzle", fillcolor="#e58139"] ;
251 -> 253 ;
254 [label="temp_max <= 20.231\ngini = 0.676\nsamples = 111\nvalue = [28, 41, 3, 0, 39]\nclass = fog", fillcolor="#fbfefa"] ;
226 -> 254 ;
255 [label="temp_min <= 11.95\ngini = 0.245\nsamples = 7\nvalue = [0, 0, 1, 0, 6]\nclass = sun", fillcolor="#e95acb"] ;
254 -> 255 ;
256 [label="gini = 0.0\nsamples = 6\nvalue = [0, 0, 0, 0, 6]\nclass = sun", fillcolor="#e539c0"] ;
255 -> 256 ;
257 [label="gini = 0.0\nsamples = 1\nvalue = [0, 0, 1, 0, 0]\nclass = rain", fillcolor="#39e5c5"] ;
255 -> 257 ;
258 [label="temp_max <= 20.924\ngini = 0.671\nsamples = 104\nvalue = [28, 41, 2, 0, 33]\nclass = fog", fillcolor="#f0fce9"] ;
254 -> 258 ;
259 [label="wind <= 1.716\ngini = 0.357\nsamples = 14\nvalue = [1, 11, 0, 0, 2]\nclass = fog", fillcolor="#9cec6b"] ;
258 -> 259 ;
260 [label="gini = 0.0\nsamples = 1\nvalue = [1, 0, 0, 0, 0]\nclass = drizzle", fillcolor="#e58139"] ;
259 -> 260 ;
261 [label="temp_max <= 20.61\ngini = 0.26\nsamples = 13\nvalue = [0, 11, 0, 0, 2]\nclass = fog", fillcolor="#93ea5d"] ;
259 -> 261 ;
262 [label="wind <= 1.979\ngini = 0.444\nsamples = 6\nvalue = [0, 4, 0, 0, 2]\nclass = fog", fillcolor="#bdf29c"] ;
261 -> 262 ;
263 [label="gini = 0.0\nsamples = 1\nvalue = [0, 0, 0, 0, 1]\nclass = sun", fillcolor="#e539c0"] ;
262 -> 263 ;
264 [label="temp_min <= 9.7\ngini = 0.32\nsamples = 5\nvalue = [0, 4, 0, 0, 1]\nclass = fog", fillcolor="#9cec6a"] ;
262 -> 264 ;
265 [label="gini = 0.0\nsamples = 2\nvalue = [0, 2, 0, 0, 0]\nclass = fog", fillcolor="#7be539"] ;
264 -> 265 ;
266 [label="wind <= 2.334\ngini = 0.444\nsamples = 3\nvalue = [0, 2, 0, 0, 1]\nclass = fog", fillcolor="#bdf29c"] ;
264 -> 266 ;
267 [label="gini = 0.0\nsamples = 1\nvalue = [0, 0, 0, 0, 1]\nclass = sun", fillcolor="#e539c0"] ;
266 -> 267 ;
268 [label="gini = 0.0\nsamples = 2\nvalue = [0, 2, 0, 0, 0]\nclass = fog", fillcolor="#7be539"] ;
266 -> 268 ;
269 [label="gini = 0.0\nsamples = 7\nvalue = [0, 7, 0, 0, 0]\nclass = fog", fillcolor="#7be539"] ;
261 -> 269 ;
270 [label="temp_min <= 9.52\ngini = 0.68\nsamples = 90\nvalue = [27, 30, 2, 0, 31]\nclass = sun", fillcolor="#fffcfe"] ;
258 -> 270 ;
271 [label="wind <= 2.309\ngini = 0.198\nsamples = 9\nvalue = [0, 1, 0, 0, 8]\nclass = sun", fillcolor="#e852c8"] ;
270 -> 271 ;
272 [label="gini = 0.0\nsamples = 7\nvalue = [0, 0, 0, 0, 7]\nclass = sun", fillcolor="#e539c0"] ;
271 -> 272 ;
273 [label="wind <= 2.409\ngini = 0.5\nsamples = 2\nvalue = [0, 1, 0, 0, 1]\nclass = fog", fillcolor="#ffffff"] ;
271 -> 273 ;
274 [label="gini = 0.0\nsamples = 1\nvalue = [0, 1, 0, 0, 0]\nclass = fog", fillcolor="#7be539"] ;
273 -> 274 ;
275 [label="gini = 0.0\nsamples = 1\nvalue = [0, 0, 0, 0, 1]\nclass = sun", fillcolor="#e539c0"] ;
273 -> 275 ;
276 [label="wind <= 1.698\ngini = 0.679\nsamples = 81\nvalue = [27, 29, 2, 0, 23]\nclass = fog", fillcolor="#fafef8"] ;
270 -> 276 ;
277 [label="temp_max <= 25.024\ngini = 0.32\nsamples = 10\nvalue = [0, 8, 0, 0, 2]\nclass = fog", fillcolor="#9cec6a"] ;
276 -> 277 ;
278 [label="gini = 0.0\nsamples = 8\nvalue = [0, 8, 0, 0, 0]\nclass = fog", fillcolor="#7be539"] ;
277 -> 278 ;
279 [label="gini = 0.0\nsamples = 2\nvalue = [0, 0, 0, 0, 2]\nclass = sun", fillcolor="#e539c0"] ;
277 -> 279 ;
280 [label="temp_min <= 9.982\ngini = 0.68\nsamples = 71\nvalue = [27, 21, 2, 0, 21]\nclass = drizzle", fillcolor="#fcf0e7"] ;
276 -> 280 ;
281 [label="gini = 0.0\nsamples = 6\nvalue = [6, 0, 0, 0, 0]\nclass = drizzle", fillcolor="#e58139"] ;
280 -> 281 ;
282 [label="temp_max <= 23.347\ngini = 0.686\nsamples = 65\nvalue = [21, 21, 2, 0, 21]\nclass = drizzle", fillcolor="#ffffff"] ;
280 -> 282 ;
283 [label="wind <= 2.0\ngini = 0.649\nsamples = 34\nvalue = [5, 16, 2, 0, 11]\nclass = fog", fillcolor="#e2f9d4"] ;
282 -> 283 ;
284 [label="temp_min <= 10.519\ngini = 0.543\nsamples = 18\nvalue = [5, 11, 1, 0, 1]\nclass = fog", fillcolor="#c2f3a4"] ;
283 -> 284 ;
285 [label="temp_max <= 21.313\ngini = 0.449\nsamples = 7\nvalue = [5, 1, 1, 0, 0]\nclass = drizzle", fillcolor="#eeab7b"] ;
284 -> 285 ;
286 [label="gini = 0.0\nsamples = 1\nvalue = [0, 1, 0, 0, 0]\nclass = fog", fillcolor="#7be539"] ;
285 -> 286 ;
287 [label="temp_max <= 23.269\ngini = 0.278\nsamples = 6\nvalue = [5, 0, 1, 0, 0]\nclass = drizzle", fillcolor="#ea9a61"] ;
285 -> 287 ;
288 [label="gini = 0.0\nsamples = 5\nvalue = [5, 0, 0, 0, 0]\nclass = drizzle", fillcolor="#e58139"] ;
287 -> 288 ;
289 [label="gini = 0.0\nsamples = 1\nvalue = [0, 0, 1, 0, 0]\nclass = rain", fillcolor="#39e5c5"] ;
287 -> 289 ;
290 [label="temp_max <= 22.594\ngini = 0.165\nsamples = 11\nvalue = [0, 10, 0, 0, 1]\nclass = fog", fillcolor="#88e84d"] ;
284 -> 290 ;
291 [label="gini = 0.0\nsamples = 1\nvalue = [0, 0, 0, 0, 1]\nclass = sun", fillcolor="#e539c0"] ;
290 -> 291 ;
292 [label="gini = 0.0\nsamples = 10\nvalue = [0, 10, 0, 0, 0]\nclass = fog", fillcolor="#7be539"] ;
290 -> 292 ;
293 [label="temp_max <= 22.554\ngini = 0.508\nsamples = 16\nvalue = [0, 5, 1, 0, 10]\nclass = sun", fillcolor="#f3a5e2"] ;
283 -> 293 ;
294 [label="temp_min <= 11.95\ngini = 0.579\nsamples = 11\nvalue = [0, 5, 1, 0, 5]\nclass = fog", fillcolor="#ffffff"] ;
293 -> 294 ;
295 [label="wind <= 2.4\ngini = 0.449\nsamples = 7\nvalue = [0, 1, 1, 0, 5]\nclass = sun", fillcolor="#ee7bd5"] ;
294 -> 295 ;
296 [label="temp_max <= 21.051\ngini = 0.278\nsamples = 6\nvalue = [0, 1, 0, 0, 5]\nclass = sun", fillcolor="#ea61cd"] ;
295 -> 296 ;
297 [label="gini = 0.0\nsamples = 1\nvalue = [0, 1, 0, 0, 0]\nclass = fog", fillcolor="#7be539"] ;
296 -> 297 ;
298 [label="gini = 0.0\nsamples = 5\nvalue = [0, 0, 0, 0, 5]\nclass = sun", fillcolor="#e539c0"] ;
296 -> 298 ;
299 [label="gini = 0.0\nsamples = 1\nvalue = [0, 0, 1, 0, 0]\nclass = rain", fillcolor="#39e5c5"] ;
295 -> 299 ;
300 [label="gini = 0.0\nsamples = 4\nvalue = [0, 4, 0, 0, 0]\nclass = fog", fillcolor="#7be539"] ;
294 -> 300 ;
301 [label="gini = 0.0\nsamples = 5\nvalue = [0, 0, 0, 0, 5]\nclass = sun", fillcolor="#e539c0"] ;
293 -> 301 ;
302 [label="temp_max <= 27.248\ngini = 0.604\nsamples = 31\nvalue = [16, 5, 0, 0, 10]\nclass = drizzle", fillcolor="#f8dbc6"] ;
282 -> 302 ;
303 [label="temp_max <= 24.262\ngini = 0.423\nsamples = 23\nvalue = [16, 0, 0, 0, 7]\nclass = drizzle", fillcolor="#f0b890"] ;
302 -> 303 ;
304 [label="temp_min <= 12.171\ngini = 0.26\nsamples = 13\nvalue = [11, 0, 0, 0, 2]\nclass = drizzle", fillcolor="#ea985d"] ;
303 -> 304 ;
305 [label="temp_min <= 11.683\ngini = 0.153\nsamples = 12\nvalue = [11, 0, 0, 0, 1]\nclass = drizzle", fillcolor="#e78c4b"] ;
304 -> 305 ;
306 [label="gini = 0.0\nsamples = 7\nvalue = [7, 0, 0, 0, 0]\nclass = drizzle", fillcolor="#e58139"] ;
305 -> 306 ;
307 [label="wind <= 2.018\ngini = 0.32\nsamples = 5\nvalue = [4, 0, 0, 0, 1]\nclass = drizzle", fillcolor="#eca06a"] ;
305 -> 307 ;
308 [label="gini = 0.0\nsamples = 4\nvalue = [4, 0, 0, 0, 0]\nclass = drizzle", fillcolor="#e58139"] ;
307 -> 308 ;
309 [label="gini = 0.0\nsamples = 1\nvalue = [0, 0, 0, 0, 1]\nclass = sun", fillcolor="#e539c0"] ;
307 -> 309 ;
310 [label="gini = 0.0\nsamples = 1\nvalue = [0, 0, 0, 0, 1]\nclass = sun", fillcolor="#e539c0"] ;
304 -> 310 ;
311 [label="wind <= 2.303\ngini = 0.5\nsamples = 10\nvalue = [5, 0, 0, 0, 5]\nclass = drizzle", fillcolor="#ffffff"] ;
303 -> 311 ;
312 [label="temp_min <= 11.929\ngini = 0.32\nsamples = 5\nvalue = [1, 0, 0, 0, 4]\nclass = sun", fillcolor="#ec6ad0"] ;
311 -> 312 ;
313 [label="gini = 0.0\nsamples = 4\nvalue = [0, 0, 0, 0, 4]\nclass = sun", fillcolor="#e539c0"] ;
312 -> 313 ;
314 [label="gini = 0.0\nsamples = 1\nvalue = [1, 0, 0, 0, 0]\nclass = drizzle", fillcolor="#e58139"] ;
312 -> 314 ;
315 [label="wind <= 2.496\ngini = 0.32\nsamples = 5\nvalue = [4, 0, 0, 0, 1]\nclass = drizzle", fillcolor="#eca06a"] ;
311 -> 315 ;
316 [label="gini = 0.0\nsamples = 3\nvalue = [3, 0, 0, 0, 0]\nclass = drizzle", fillcolor="#e58139"] ;
315 -> 316 ;
317 [label="gini = 0.5\nsamples = 2\nvalue = [1, 0, 0, 0, 1]\nclass = drizzle", fillcolor="#ffffff"] ;
315 -> 317 ;
318 [label="wind <= 2.149\ngini = 0.469\nsamples = 8\nvalue = [0, 5, 0, 0, 3]\nclass = fog", fillcolor="#caf5b0"] ;
302 -> 318 ;
319 [label="gini = 0.0\nsamples = 3\nvalue = [0, 0, 0, 0, 3]\nclass = sun", fillcolor="#e539c0"] ;
318 -> 319 ;
320 [label="gini = 0.0\nsamples = 5\nvalue = [0, 5, 0, 0, 0]\nclass = fog", fillcolor="#7be539"] ;
318 -> 320 ;
321 [label="temp_max <= 21.838\ngini = 0.506\nsamples = 106\nvalue = [70, 20, 0, 0, 16]\nclass = drizzle", fillcolor="#f0b68c"] ;
57 -> 321 ;
322 [label="wind <= 2.191\ngini = 0.571\nsamples = 14\nvalue = [2, 8, 0, 0, 4]\nclass = fog", fillcolor="#caf5b0"] ;
321 -> 322 ;
323 [label="temp_max <= 21.386\ngini = 0.219\nsamples = 8\nvalue = [0, 7, 0, 0, 1]\nclass = fog", fillcolor="#8ee955"] ;
322 -> 323 ;
324 [label="gini = 0.0\nsamples = 7\nvalue = [0, 7, 0, 0, 0]\nclass = fog", fillcolor="#7be539"] ;
323 -> 324 ;
325 [label="gini = 0.0\nsamples = 1\nvalue = [0, 0, 0, 0, 1]\nclass = sun", fillcolor="#e539c0"] ;
323 -> 325 ;
326 [label="temp_min <= 13.316\ngini = 0.611\nsamples = 6\nvalue = [2, 1, 0, 0, 3]\nclass = sun", fillcolor="#f8ceef"] ;
322 -> 326 ;
327 [label="gini = 0.0\nsamples = 3\nvalue = [0, 0, 0, 0, 3]\nclass = sun", fillcolor="#e539c0"] ;
326 -> 327 ;
328 [label="temp_max <= 21.205\ngini = 0.444\nsamples = 3\nvalue = [2, 1, 0, 0, 0]\nclass = drizzle", fillcolor="#f2c09c"] ;
326 -> 328 ;
329 [label="gini = 0.0\nsamples = 2\nvalue = [2, 0, 0, 0, 0]\nclass = drizzle", fillcolor="#e58139"] ;
328 -> 329 ;
330 [label="gini = 0.0\nsamples = 1\nvalue = [0, 1, 0, 0, 0]\nclass = fog", fillcolor="#7be539"] ;
328 -> 330 ;
331 [label="temp_max <= 26.013\ngini = 0.42\nsamples = 92\nvalue = [68, 12, 0, 0, 12]\nclass = drizzle", fillcolor="#eda774"] ;
321 -> 331 ;
332 [label="wind <= 2.298\ngini = 0.264\nsamples = 66\nvalue = [56, 2, 0, 0, 8]\nclass = drizzle", fillcolor="#e9975b"] ;
331 -> 332 ;
333 [label="wind <= 2.058\ngini = 0.181\nsamples = 51\nvalue = [46, 2, 0, 0, 3]\nclass = drizzle", fillcolor="#e88e4e"] ;
332 -> 333 ;
334 [label="temp_max <= 23.472\ngini = 0.388\nsamples = 17\nvalue = [13, 2, 0, 0, 2]\nclass = drizzle", fillcolor="#eca36e"] ;
333 -> 334 ;
335 [label="wind <= 2.018\ngini = 0.32\nsamples = 16\nvalue = [13, 2, 0, 0, 1]\nclass = drizzle", fillcolor="#eb9c63"] ;
334 -> 335 ;
336 [label="temp_min <= 12.853\ngini = 0.24\nsamples = 15\nvalue = [13, 1, 0, 0, 1]\nclass = drizzle", fillcolor="#e99355"] ;
335 -> 336 ;
337 [label="temp_min <= 12.696\ngini = 0.56\nsamples = 5\nvalue = [3, 1, 0, 0, 1]\nclass = drizzle", fillcolor="#f2c09c"] ;
336 -> 337 ;
338 [label="gini = 0.0\nsamples = 3\nvalue = [3, 0, 0, 0, 0]\nclass = drizzle", fillcolor="#e58139"] ;
337 -> 338 ;
339 [label="wind <= 1.841\ngini = 0.5\nsamples = 2\nvalue = [0, 1, 0, 0, 1]\nclass = fog", fillcolor="#ffffff"] ;
337 -> 339 ;
340 [label="gini = 0.0\nsamples = 1\nvalue = [0, 1, 0, 0, 0]\nclass = fog", fillcolor="#7be539"] ;
339 -> 340 ;
341 [label="gini = 0.0\nsamples = 1\nvalue = [0, 0, 0, 0, 1]\nclass = sun", fillcolor="#e539c0"] ;
339 -> 341 ;
342 [label="gini = 0.0\nsamples = 10\nvalue = [10, 0, 0, 0, 0]\nclass = drizzle", fillcolor="#e58139"] ;
336 -> 342 ;
343 [label="gini = 0.0\nsamples = 1\nvalue = [0, 1, 0, 0, 0]\nclass = fog", fillcolor="#7be539"] ;
335 -> 343 ;
344 [label="gini = 0.0\nsamples = 1\nvalue = [0, 0, 0, 0, 1]\nclass = sun", fillcolor="#e539c0"] ;
334 -> 344 ;
345 [label="temp_min <= 13.289\ngini = 0.057\nsamples = 34\nvalue = [33, 0, 0, 0, 1]\nclass = drizzle", fillcolor="#e6853f"] ;
333 -> 345 ;
346 [label="gini = 0.0\nsamples = 24\nvalue = [24, 0, 0, 0, 0]\nclass = drizzle", fillcolor="#e58139"] ;
345 -> 346 ;
347 [label="temp_max <= 23.869\ngini = 0.18\nsamples = 10\nvalue = [9, 0, 0, 0, 1]\nclass = drizzle", fillcolor="#e88f4f"] ;
345 -> 347 ;
348 [label="gini = 0.0\nsamples = 7\nvalue = [7, 0, 0, 0, 0]\nclass = drizzle", fillcolor="#e58139"] ;
347 -> 348 ;
349 [label="wind <= 2.248\ngini = 0.444\nsamples = 3\nvalue = [2, 0, 0, 0, 1]\nclass = drizzle", fillcolor="#f2c09c"] ;
347 -> 349 ;
350 [label="gini = 0.5\nsamples = 2\nvalue = [1, 0, 0, 0, 1]\nclass = drizzle", fillcolor="#ffffff"] ;
349 -> 350 ;
351 [label="gini = 0.0\nsamples = 1\nvalue = [1, 0, 0, 0, 0]\nclass = drizzle", fillcolor="#e58139"] ;
349 -> 351 ;
352 [label="temp_max <= 23.918\ngini = 0.444\nsamples = 15\nvalue = [10, 0, 0, 0, 5]\nclass = drizzle", fillcolor="#f2c09c"] ;
332 -> 352 ;
353 [label="wind <= 2.423\ngini = 0.444\nsamples = 6\nvalue = [2, 0, 0, 0, 4]\nclass = sun", fillcolor="#f29ce0"] ;
352 -> 353 ;
354 [label="gini = 0.0\nsamples = 3\nvalue = [0, 0, 0, 0, 3]\nclass = sun", fillcolor="#e539c0"] ;
353 -> 354 ;
355 [label="temp_max <= 23.11\ngini = 0.444\nsamples = 3\nvalue = [2, 0, 0, 0, 1]\nclass = drizzle", fillcolor="#f2c09c"] ;
353 -> 355 ;
356 [label="gini = 0.0\nsamples = 2\nvalue = [2, 0, 0, 0, 0]\nclass = drizzle", fillcolor="#e58139"] ;
355 -> 356 ;
357 [label="gini = 0.0\nsamples = 1\nvalue = [0, 0, 0, 0, 1]\nclass = sun", fillcolor="#e539c0"] ;
355 -> 357 ;
358 [label="wind <= 2.476\ngini = 0.198\nsamples = 9\nvalue = [8, 0, 0, 0, 1]\nclass = drizzle", fillcolor="#e89152"] ;
352 -> 358 ;
359 [label="gini = 0.0\nsamples = 5\nvalue = [5, 0, 0, 0, 0]\nclass = drizzle", fillcolor="#e58139"] ;
358 -> 359 ;
360 [label="wind <= 2.516\ngini = 0.375\nsamples = 4\nvalue = [3, 0, 0, 0, 1]\nclass = drizzle", fillcolor="#eeab7b"] ;
358 -> 360 ;
361 [label="gini = 0.0\nsamples = 1\nvalue = [0, 0, 0, 0, 1]\nclass = sun", fillcolor="#e539c0"] ;
360 -> 361 ;
362 [label="gini = 0.0\nsamples = 3\nvalue = [3, 0, 0, 0, 0]\nclass = drizzle", fillcolor="#e58139"] ;
360 -> 362 ;
363 [label="temp_min <= 12.656\ngini = 0.615\nsamples = 26\nvalue = [12, 10, 0, 0, 4]\nclass = drizzle", fillcolor="#fcefe6"] ;
331 -> 363 ;
364 [label="gini = 0.0\nsamples = 7\nvalue = [7, 0, 0, 0, 0]\nclass = drizzle", fillcolor="#e58139"] ;
363 -> 364 ;
365 [label="temp_min <= 13.705\ngini = 0.609\nsamples = 19\nvalue = [5, 10, 0, 0, 4]\nclass = fog", fillcolor="#d0f6b8"] ;
363 -> 365 ;
366 [label="temp_min <= 13.361\ngini = 0.551\nsamples = 15\nvalue = [2, 9, 0, 0, 4]\nclass = fog", fillcolor="#c3f3a5"] ;
365 -> 366 ;
367 [label="wind <= 2.45\ngini = 0.64\nsamples = 10\nvalue = [2, 4, 0, 0, 4]\nclass = fog", fillcolor="#ffffff"] ;
366 -> 367 ;
368 [label="temp_min <= 13.204\ngini = 0.625\nsamples = 8\nvalue = [2, 4, 0, 0, 2]\nclass = fog", fillcolor="#d3f6bd"] ;
367 -> 368 ;
369 [label="temp_min <= 12.938\ngini = 0.48\nsamples = 5\nvalue = [2, 3, 0, 0, 0]\nclass = fog", fillcolor="#d3f6bd"] ;
368 -> 369 ;
370 [label="gini = 0.0\nsamples = 2\nvalue = [0, 2, 0, 0, 0]\nclass = fog", fillcolor="#7be539"] ;
369 -> 370 ;
371 [label="temp_min <= 13.055\ngini = 0.444\nsamples = 3\nvalue = [2, 1, 0, 0, 0]\nclass = drizzle", fillcolor="#f2c09c"] ;
369 -> 371 ;
372 [label="gini = 0.0\nsamples = 2\nvalue = [2, 0, 0, 0, 0]\nclass = drizzle", fillcolor="#e58139"] ;
371 -> 372 ;
373 [label="gini = 0.0\nsamples = 1\nvalue = [0, 1, 0, 0, 0]\nclass = fog", fillcolor="#7be539"] ;
371 -> 373 ;
374 [label="wind <= 2.3\ngini = 0.444\nsamples = 3\nvalue = [0, 1, 0, 0, 2]\nclass = sun", fillcolor="#f29ce0"] ;
368 -> 374 ;
375 [label="gini = 0.0\nsamples = 2\nvalue = [0, 0, 0, 0, 2]\nclass = sun", fillcolor="#e539c0"] ;
374 -> 375 ;
376 [label="gini = 0.0\nsamples = 1\nvalue = [0, 1, 0, 0, 0]\nclass = fog", fillcolor="#7be539"] ;
374 -> 376 ;
377 [label="gini = 0.0\nsamples = 2\nvalue = [0, 0, 0, 0, 2]\nclass = sun", fillcolor="#e539c0"] ;
367 -> 377 ;
378 [label="gini = 0.0\nsamples = 5\nvalue = [0, 5, 0, 0, 0]\nclass = fog", fillcolor="#7be539"] ;
366 -> 378 ;
379 [label="temp_max <= 27.332\ngini = 0.375\nsamples = 4\nvalue = [3, 1, 0, 0, 0]\nclass = drizzle", fillcolor="#eeab7b"] ;
365 -> 379 ;
380 [label="gini = 0.0\nsamples = 1\nvalue = [0, 1, 0, 0, 0]\nclass = fog", fillcolor="#7be539"] ;
379 -> 380 ;
381 [label="gini = 0.0\nsamples = 3\nvalue = [3, 0, 0, 0, 0]\nclass = drizzle", fillcolor="#e58139"] ;
379 -> 381 ;
382 [label="temp_max <= 22.25\ngini = 0.573\nsamples = 70\nvalue = [6, 23, 2, 0, 39]\nclass = sun", fillcolor="#f6bcea"] ;
54 -> 382 ;
383 [label="temp_max <= 20.0\ngini = 0.278\nsamples = 12\nvalue = [0, 10, 0, 0, 2]\nclass = fog", fillcolor="#95ea61"] ;
382 -> 383 ;
384 [label="gini = 0.0\nsamples = 2\nvalue = [0, 0, 0, 0, 2]\nclass = sun", fillcolor="#e539c0"] ;
383 -> 384 ;
385 [label="gini = 0.0\nsamples = 10\nvalue = [0, 10, 0, 0, 0]\nclass = fog", fillcolor="#7be539"] ;
383 -> 385 ;
386 [label="temp_max <= 29.413\ngini = 0.531\nsamples = 58\nvalue = [6, 13, 2, 0, 37]\nclass = sun", fillcolor="#f195dd"] ;
382 -> 386 ;
387 [label="wind <= 2.403\ngini = 0.452\nsamples = 48\nvalue = [0, 13, 2, 0, 33]\nclass = sun", fillcolor="#f08edb"] ;
386 -> 387 ;
388 [label="wind <= 1.579\ngini = 0.38\nsamples = 41\nvalue = [0, 9, 1, 0, 31]\nclass = sun", fillcolor="#ed77d4"] ;
387 -> 388 ;
389 [label="gini = 0.0\nsamples = 2\nvalue = [0, 2, 0, 0, 0]\nclass = fog", fillcolor="#7be539"] ;
388 -> 389 ;
390 [label="wind <= 2.125\ngini = 0.335\nsamples = 39\nvalue = [0, 7, 1, 0, 31]\nclass = sun", fillcolor="#ec6bd0"] ;
388 -> 390 ;
391 [label="wind <= 1.788\ngini = 0.105\nsamples = 18\nvalue = [0, 1, 0, 0, 17]\nclass = sun", fillcolor="#e745c4"] ;
390 -> 391 ;
392 [label="wind <= 1.738\ngini = 0.375\nsamples = 4\nvalue = [0, 1, 0, 0, 3]\nclass = sun", fillcolor="#ee7bd5"] ;
391 -> 392 ;
393 [label="gini = 0.0\nsamples = 3\nvalue = [0, 0, 0, 0, 3]\nclass = sun", fillcolor="#e539c0"] ;
392 -> 393 ;
394 [label="gini = 0.0\nsamples = 1\nvalue = [0, 1, 0, 0, 0]\nclass = fog", fillcolor="#7be539"] ;
392 -> 394 ;
395 [label="gini = 0.0\nsamples = 14\nvalue = [0, 0, 0, 0, 14]\nclass = sun", fillcolor="#e539c0"] ;
391 -> 395 ;
396 [label="wind <= 2.295\ngini = 0.472\nsamples = 21\nvalue = [0, 6, 1, 0, 14]\nclass = sun", fillcolor="#f195dd"] ;
390 -> 396 ;
397 [label="temp_max <= 25.815\ngini = 0.569\nsamples = 12\nvalue = [0, 6, 1, 0, 5]\nclass = fog", fillcolor="#ecfbe3"] ;
396 -> 397 ;
398 [label="temp_min <= 14.7\ngini = 0.444\nsamples = 3\nvalue = [0, 0, 1, 0, 2]\nclass = sun", fillcolor="#f29ce0"] ;
397 -> 398 ;
399 [label="gini = 0.0\nsamples = 1\nvalue = [0, 0, 0, 0, 1]\nclass = sun", fillcolor="#e539c0"] ;
398 -> 399 ;
400 [label="temp_max <= 25.3\ngini = 0.5\nsamples = 2\nvalue = [0, 0, 1, 0, 1]\nclass = rain", fillcolor="#ffffff"] ;
398 -> 400 ;
401 [label="gini = 0.0\nsamples = 1\nvalue = [0, 0, 1, 0, 0]\nclass = rain", fillcolor="#39e5c5"] ;
400 -> 401 ;
402 [label="gini = 0.0\nsamples = 1\nvalue = [0, 0, 0, 0, 1]\nclass = sun", fillcolor="#e539c0"] ;
400 -> 402 ;
403 [label="temp_min <= 14.981\ngini = 0.444\nsamples = 9\nvalue = [0, 6, 0, 0, 3]\nclass = fog", fillcolor="#bdf29c"] ;
397 -> 403 ;
404 [label="gini = 0.0\nsamples = 3\nvalue = [0, 3, 0, 0, 0]\nclass = fog", fillcolor="#7be539"] ;
403 -> 404 ;
405 [label="temp_max <= 28.374\ngini = 0.5\nsamples = 6\nvalue = [0, 3, 0, 0, 3]\nclass = fog", fillcolor="#ffffff"] ;
403 -> 405 ;
406 [label="temp_min <= 15.3\ngini = 0.375\nsamples = 4\nvalue = [0, 1, 0, 0, 3]\nclass = sun", fillcolor="#ee7bd5"] ;
405 -> 406 ;
407 [label="temp_max <= 27.2\ngini = 0.5\nsamples = 2\nvalue = [0, 1, 0, 0, 1]\nclass = fog", fillcolor="#ffffff"] ;
406 -> 407 ;
408 [label="gini = 0.0\nsamples = 1\nvalue = [0, 1, 0, 0, 0]\nclass = fog", fillcolor="#7be539"] ;
407 -> 408 ;
409 [label="gini = 0.0\nsamples = 1\nvalue = [0, 0, 0, 0, 1]\nclass = sun", fillcolor="#e539c0"] ;
407 -> 409 ;
410 [label="gini = 0.0\nsamples = 2\nvalue = [0, 0, 0, 0, 2]\nclass = sun", fillcolor="#e539c0"] ;
406 -> 410 ;
411 [label="gini = 0.0\nsamples = 2\nvalue = [0, 2, 0, 0, 0]\nclass = fog", fillcolor="#7be539"] ;
405 -> 411 ;
412 [label="gini = 0.0\nsamples = 9\nvalue = [0, 0, 0, 0, 9]\nclass = sun", fillcolor="#e539c0"] ;
396 -> 412 ;
413 [label="wind <= 2.498\ngini = 0.571\nsamples = 7\nvalue = [0, 4, 1, 0, 2]\nclass = fog", fillcolor="#caf5b0"] ;
387 -> 413 ;
414 [label="gini = 0.0\nsamples = 3\nvalue = [0, 3, 0, 0, 0]\nclass = fog", fillcolor="#7be539"] ;
413 -> 414 ;
415 [label="wind <= 2.518\ngini = 0.625\nsamples = 4\nvalue = [0, 1, 1, 0, 2]\nclass = sun", fillcolor="#f6bdea"] ;
413 -> 415 ;
416 [label="temp_max <= 28.05\ngini = 0.444\nsamples = 3\nvalue = [0, 0, 1, 0, 2]\nclass = sun", fillcolor="#f29ce0"] ;
415 -> 416 ;
417 [label="gini = 0.0\nsamples = 1\nvalue = [0, 0, 0, 0, 1]\nclass = sun", fillcolor="#e539c0"] ;
416 -> 417 ;
418 [label="temp_min <= 15.0\ngini = 0.5\nsamples = 2\nvalue = [0, 0, 1, 0, 1]\nclass = rain", fillcolor="#ffffff"] ;
416 -> 418 ;
419 [label="gini = 0.0\nsamples = 1\nvalue = [0, 0, 0, 0, 1]\nclass = sun", fillcolor="#e539c0"] ;
418 -> 419 ;
420 [label="gini = 0.0\nsamples = 1\nvalue = [0, 0, 1, 0, 0]\nclass = rain", fillcolor="#39e5c5"] ;
418 -> 420 ;
421 [label="gini = 0.0\nsamples = 1\nvalue = [0, 1, 0, 0, 0]\nclass = fog", fillcolor="#7be539"] ;
415 -> 421 ;
422 [label="temp_min <= 14.952\ngini = 0.48\nsamples = 10\nvalue = [6, 0, 0, 0, 4]\nclass = drizzle", fillcolor="#f6d5bd"] ;
386 -> 422 ;
423 [label="temp_max <= 30.3\ngini = 0.245\nsamples = 7\nvalue = [6, 0, 0, 0, 1]\nclass = drizzle", fillcolor="#e9965a"] ;
422 -> 423 ;
424 [label="gini = 0.0\nsamples = 6\nvalue = [6, 0, 0, 0, 0]\nclass = drizzle", fillcolor="#e58139"] ;
423 -> 424 ;
425 [label="gini = 0.0\nsamples = 1\nvalue = [0, 0, 0, 0, 1]\nclass = sun", fillcolor="#e539c0"] ;
423 -> 425 ;
426 [label="gini = 0.0\nsamples = 3\nvalue = [0, 0, 0, 0, 3]\nclass = sun", fillcolor="#e539c0"] ;
422 -> 426 ;
427 [label="temp_max <= 10.429\ngini = 0.67\nsamples = 606\nvalue = [148, 167, 25, 0, 266]\nclass = sun", fillcolor="#f9d2f1"] ;
1 -> 427 ;
428 [label="temp_min <= 0.3\ngini = 0.641\nsamples = 100\nvalue = [29, 48, 2, 0, 21]\nclass = fog", fillcolor="#dcf8ca"] ;
427 -> 428 ;
429 [label="gini = 0.0\nsamples = 12\nvalue = [0, 0, 0, 0, 12]\nclass = sun", fillcolor="#e539c0"] ;
428 -> 429 ;
430 [label="temp_min <= 1.574\ngini = 0.583\nsamples = 88\nvalue = [29, 48, 2, 0, 9]\nclass = fog", fillcolor="#d4f7bf"] ;
428 -> 430 ;
431 [label="temp_min <= 0.81\ngini = 0.554\nsamples = 42\nvalue = [25, 12, 1, 0, 4]\nclass = drizzle", fillcolor="#f4c8a9"] ;
430 -> 431 ;
432 [label="wind <= 4.35\ngini = 0.43\nsamples = 11\nvalue = [1, 8, 0, 0, 2]\nclass = fog", fillcolor="#a7ee7b"] ;
431 -> 432 ;
433 [label="wind <= 3.071\ngini = 0.198\nsamples = 9\nvalue = [1, 8, 0, 0, 0]\nclass = fog", fillcolor="#8ce852"] ;
432 -> 433 ;
434 [label="gini = 0.0\nsamples = 6\nvalue = [0, 6, 0, 0, 0]\nclass = fog", fillcolor="#7be539"] ;
433 -> 434 ;
435 [label="wind <= 3.537\ngini = 0.444\nsamples = 3\nvalue = [1, 2, 0, 0, 0]\nclass = fog", fillcolor="#bdf29c"] ;
433 -> 435 ;
436 [label="gini = 0.0\nsamples = 1\nvalue = [1, 0, 0, 0, 0]\nclass = drizzle", fillcolor="#e58139"] ;
435 -> 436 ;
437 [label="gini = 0.0\nsamples = 2\nvalue = [0, 2, 0, 0, 0]\nclass = fog", fillcolor="#7be539"] ;
435 -> 437 ;
438 [label="gini = 0.0\nsamples = 2\nvalue = [0, 0, 0, 0, 2]\nclass = sun", fillcolor="#e539c0"] ;
432 -> 438 ;
439 [label="temp_max <= 9.616\ngini = 0.379\nsamples = 31\nvalue = [24, 4, 1, 0, 2]\nclass = drizzle", fillcolor="#eca26c"] ;
431 -> 439 ;
440 [label="wind <= 2.676\ngini = 0.253\nsamples = 28\nvalue = [24, 3, 0, 0, 1]\nclass = drizzle", fillcolor="#e99559"] ;
439 -> 440 ;
441 [label="temp_max <= 7.755\ngini = 0.444\nsamples = 3\nvalue = [1, 2, 0, 0, 0]\nclass = fog", fillcolor="#bdf29c"] ;
440 -> 441 ;
442 [label="gini = 0.0\nsamples = 1\nvalue = [1, 0, 0, 0, 0]\nclass = drizzle", fillcolor="#e58139"] ;
441 -> 442 ;
443 [label="gini = 0.0\nsamples = 2\nvalue = [0, 2, 0, 0, 0]\nclass = fog", fillcolor="#7be539"] ;
441 -> 443 ;
444 [label="wind <= 3.814\ngini = 0.15\nsamples = 25\nvalue = [23, 1, 0, 0, 1]\nclass = drizzle", fillcolor="#e78c49"] ;
440 -> 444 ;
445 [label="temp_max <= 6.885\ngini = 0.08\nsamples = 24\nvalue = [23, 0, 0, 0, 1]\nclass = drizzle", fillcolor="#e68642"] ;
444 -> 445 ;
446 [label="gini = 0.0\nsamples = 1\nvalue = [0, 0, 0, 0, 1]\nclass = sun", fillcolor="#e539c0"] ;
445 -> 446 ;
447 [label="gini = 0.0\nsamples = 23\nvalue = [23, 0, 0, 0, 0]\nclass = drizzle", fillcolor="#e58139"] ;
445 -> 447 ;
448 [label="gini = 0.0\nsamples = 1\nvalue = [0, 1, 0, 0, 0]\nclass = fog", fillcolor="#7be539"] ;
444 -> 448 ;
449 [label="temp_min <= 1.28\ngini = 0.667\nsamples = 3\nvalue = [0, 1, 1, 0, 1]\nclass = fog", fillcolor="#ffffff"] ;
439 -> 449 ;
450 [label="wind <= 3.0\ngini = 0.5\nsamples = 2\nvalue = [0, 0, 1, 0, 1]\nclass = rain", fillcolor="#ffffff"] ;
449 -> 450 ;
451 [label="gini = 0.0\nsamples = 1\nvalue = [0, 0, 0, 0, 1]\nclass = sun", fillcolor="#e539c0"] ;
450 -> 451 ;
452 [label="gini = 0.0\nsamples = 1\nvalue = [0, 0, 1, 0, 0]\nclass = rain", fillcolor="#39e5c5"] ;
450 -> 452 ;
453 [label="gini = 0.0\nsamples = 1\nvalue = [0, 1, 0, 0, 0]\nclass = fog", fillcolor="#7be539"] ;
449 -> 453 ;
454 [label="temp_min <= 3.961\ngini = 0.368\nsamples = 46\nvalue = [4, 36, 1, 0, 5]\nclass = fog", fillcolor="#9beb69"] ;
430 -> 454 ;
455 [label="temp_max <= 7.466\ngini = 0.254\nsamples = 42\nvalue = [4, 36, 0, 0, 2]\nclass = fog", fillcolor="#90e958"] ;
454 -> 455 ;
456 [label="gini = 0.0\nsamples = 1\nvalue = [1, 0, 0, 0, 0]\nclass = drizzle", fillcolor="#e58139"] ;
455 -> 456 ;
457 [label="wind <= 3.091\ngini = 0.221\nsamples = 41\nvalue = [3, 36, 0, 0, 2]\nclass = fog", fillcolor="#8ce853"] ;
455 -> 457 ;
458 [label="wind <= 3.081\ngini = 0.355\nsamples = 13\nvalue = [3, 10, 0, 0, 0]\nclass = fog", fillcolor="#a3ed74"] ;
457 -> 458 ;
459 [label="wind <= 2.625\ngini = 0.165\nsamples = 11\nvalue = [1, 10, 0, 0, 0]\nclass = fog", fillcolor="#88e84d"] ;
458 -> 459 ;
460 [label="wind <= 2.611\ngini = 0.5\nsamples = 2\nvalue = [1, 1, 0, 0, 0]\nclass = drizzle", fillcolor="#ffffff"] ;
459 -> 460 ;
461 [label="gini = 0.0\nsamples = 1\nvalue = [0, 1, 0, 0, 0]\nclass = fog", fillcolor="#7be539"] ;
460 -> 461 ;
462 [label="gini = 0.0\nsamples = 1\nvalue = [1, 0, 0, 0, 0]\nclass = drizzle", fillcolor="#e58139"] ;
460 -> 462 ;
463 [label="gini = 0.0\nsamples = 9\nvalue = [0, 9, 0, 0, 0]\nclass = fog", fillcolor="#7be539"] ;
459 -> 463 ;
464 [label="gini = 0.0\nsamples = 2\nvalue = [2, 0, 0, 0, 0]\nclass = drizzle", fillcolor="#e58139"] ;
458 -> 464 ;
465 [label="temp_max <= 7.918\ngini = 0.133\nsamples = 28\nvalue = [0, 26, 0, 0, 2]\nclass = fog", fillcolor="#85e748"] ;
457 -> 465 ;
466 [label="gini = 0.0\nsamples = 1\nvalue = [0, 0, 0, 0, 1]\nclass = sun", fillcolor="#e539c0"] ;
465 -> 466 ;
467 [label="temp_max <= 8.392\ngini = 0.071\nsamples = 27\nvalue = [0, 26, 0, 0, 1]\nclass = fog", fillcolor="#80e641"] ;
465 -> 467 ;
468 [label="temp_max <= 8.243\ngini = 0.245\nsamples = 7\nvalue = [0, 6, 0, 0, 1]\nclass = fog", fillcolor="#91e95a"] ;
467 -> 468 ;
469 [label="gini = 0.0\nsamples = 5\nvalue = [0, 5, 0, 0, 0]\nclass = fog", fillcolor="#7be539"] ;
468 -> 469 ;
470 [label="wind <= 4.0\ngini = 0.5\nsamples = 2\nvalue = [0, 1, 0, 0, 1]\nclass = fog", fillcolor="#ffffff"] ;
468 -> 470 ;
471 [label="gini = 0.0\nsamples = 1\nvalue = [0, 0, 0, 0, 1]\nclass = sun", fillcolor="#e539c0"] ;
470 -> 471 ;
472 [label="gini = 0.0\nsamples = 1\nvalue = [0, 1, 0, 0, 0]\nclass = fog", fillcolor="#7be539"] ;
470 -> 472 ;
473 [label="gini = 0.0\nsamples = 20\nvalue = [0, 20, 0, 0, 0]\nclass = fog", fillcolor="#7be539"] ;
467 -> 473 ;
474 [label="wind <= 4.75\ngini = 0.375\nsamples = 4\nvalue = [0, 0, 1, 0, 3]\nclass = sun", fillcolor="#ee7bd5"] ;
454 -> 474 ;
475 [label="gini = 0.0\nsamples = 3\nvalue = [0, 0, 0, 0, 3]\nclass = sun", fillcolor="#e539c0"] ;
474 -> 475 ;
476 [label="gini = 0.0\nsamples = 1\nvalue = [0, 0, 1, 0, 0]\nclass = rain", fillcolor="#39e5c5"] ;
474 -> 476 ;
477 [label="wind <= 4.297\ngini = 0.653\nsamples = 506\nvalue = [119, 119, 23, 0, 245]\nclass = sun", fillcolor="#f7bfea"] ;
427 -> 477 ;
478 [label="temp_min <= 5.432\ngini = 0.667\nsamples = 449\nvalue = [118, 110, 19, 0, 202]\nclass = sun", fillcolor="#f8cdef"] ;
477 -> 478 ;
479 [label="temp_max <= 13.91\ngini = 0.618\nsamples = 62\nvalue = [32, 9, 2, 0, 19]\nclass = drizzle", fillcolor="#f7d9c3"] ;
478 -> 479 ;
480 [label="temp_max <= 12.43\ngini = 0.68\nsamples = 27\nvalue = [6, 7, 2, 0, 12]\nclass = sun", fillcolor="#f8ceef"] ;
479 -> 480 ;
481 [label="wind <= 2.875\ngini = 0.578\nsamples = 16\nvalue = [5, 1, 1, 0, 9]\nclass = sun", fillcolor="#f6b7e8"] ;
480 -> 481 ;
482 [label="temp_min <= 1.539\ngini = 0.494\nsamples = 9\nvalue = [5, 0, 0, 0, 4]\nclass = drizzle", fillcolor="#fae6d7"] ;
481 -> 482 ;
483 [label="gini = 0.0\nsamples = 2\nvalue = [0, 0, 0, 0, 2]\nclass = sun", fillcolor="#e539c0"] ;
482 -> 483 ;
484 [label="temp_min <= 3.452\ngini = 0.408\nsamples = 7\nvalue = [5, 0, 0, 0, 2]\nclass = drizzle", fillcolor="#efb388"] ;
482 -> 484 ;
485 [label="temp_max <= 11.4\ngini = 0.278\nsamples = 6\nvalue = [5, 0, 0, 0, 1]\nclass = drizzle", fillcolor="#ea9a61"] ;
484 -> 485 ;
486 [label="temp_min <= 2.089\ngini = 0.5\nsamples = 2\nvalue = [1, 0, 0, 0, 1]\nclass = drizzle", fillcolor="#ffffff"] ;
485 -> 486 ;
487 [label="gini = 0.0\nsamples = 1\nvalue = [1, 0, 0, 0, 0]\nclass = drizzle", fillcolor="#e58139"] ;
486 -> 487 ;
488 [label="gini = 0.0\nsamples = 1\nvalue = [0, 0, 0, 0, 1]\nclass = sun", fillcolor="#e539c0"] ;
486 -> 488 ;
489 [label="gini = 0.0\nsamples = 4\nvalue = [4, 0, 0, 0, 0]\nclass = drizzle", fillcolor="#e58139"] ;
485 -> 489 ;
490 [label="gini = 0.0\nsamples = 1\nvalue = [0, 0, 0, 0, 1]\nclass = sun", fillcolor="#e539c0"] ;
484 -> 490 ;
491 [label="temp_min <= 3.6\ngini = 0.449\nsamples = 7\nvalue = [0, 1, 1, 0, 5]\nclass = sun", fillcolor="#ee7bd5"] ;
481 -> 491 ;
492 [label="temp_max <= 11.219\ngini = 0.278\nsamples = 6\nvalue = [0, 1, 0, 0, 5]\nclass = sun", fillcolor="#ea61cd"] ;
491 -> 492 ;
493 [label="gini = 0.0\nsamples = 3\nvalue = [0, 0, 0, 0, 3]\nclass = sun", fillcolor="#e539c0"] ;
492 -> 493 ;
494 [label="temp_max <= 11.519\ngini = 0.444\nsamples = 3\nvalue = [0, 1, 0, 0, 2]\nclass = sun", fillcolor="#f29ce0"] ;
492 -> 494 ;
495 [label="gini = 0.0\nsamples = 1\nvalue = [0, 1, 0, 0, 0]\nclass = fog", fillcolor="#7be539"] ;
494 -> 495 ;
496 [label="gini = 0.0\nsamples = 2\nvalue = [0, 0, 0, 0, 2]\nclass = sun", fillcolor="#e539c0"] ;
494 -> 496 ;
497 [label="gini = 0.0\nsamples = 1\nvalue = [0, 0, 1, 0, 0]\nclass = rain", fillcolor="#39e5c5"] ;
491 -> 497 ;
498 [label="wind <= 2.796\ngini = 0.612\nsamples = 11\nvalue = [1, 6, 1, 0, 3]\nclass = fog", fillcolor="#cef5b5"] ;
480 -> 498 ;
499 [label="gini = 0.0\nsamples = 1\nvalue = [0, 0, 1, 0, 0]\nclass = rain", fillcolor="#39e5c5"] ;
498 -> 499 ;
500 [label="temp_min <= 0.735\ngini = 0.54\nsamples = 10\nvalue = [1, 6, 0, 0, 3]\nclass = fog", fillcolor="#c6f4aa"] ;
498 -> 500 ;
501 [label="gini = 0.0\nsamples = 1\nvalue = [0, 0, 0, 0, 1]\nclass = sun", fillcolor="#e539c0"] ;
500 -> 501 ;
502 [label="temp_max <= 13.654\ngini = 0.494\nsamples = 9\nvalue = [1, 6, 0, 0, 2]\nclass = fog", fillcolor="#b4f08e"] ;
500 -> 502 ;
503 [label="temp_min <= 2.338\ngini = 0.406\nsamples = 8\nvalue = [1, 6, 0, 0, 1]\nclass = fog", fillcolor="#a1ec72"] ;
502 -> 503 ;
504 [label="gini = 0.0\nsamples = 4\nvalue = [0, 4, 0, 0, 0]\nclass = fog", fillcolor="#7be539"] ;
503 -> 504 ;
505 [label="temp_max <= 13.293\ngini = 0.625\nsamples = 4\nvalue = [1, 2, 0, 0, 1]\nclass = fog", fillcolor="#d3f6bd"] ;
503 -> 505 ;
506 [label="wind <= 3.11\ngini = 0.5\nsamples = 2\nvalue = [1, 0, 0, 0, 1]\nclass = drizzle", fillcolor="#ffffff"] ;
505 -> 506 ;
507 [label="gini = 0.0\nsamples = 1\nvalue = [1, 0, 0, 0, 0]\nclass = drizzle", fillcolor="#e58139"] ;
506 -> 507 ;
508 [label="gini = 0.0\nsamples = 1\nvalue = [0, 0, 0, 0, 1]\nclass = sun", fillcolor="#e539c0"] ;
506 -> 508 ;
509 [label="gini = 0.0\nsamples = 2\nvalue = [0, 2, 0, 0, 0]\nclass = fog", fillcolor="#7be539"] ;
505 -> 509 ;
510 [label="gini = 0.0\nsamples = 1\nvalue = [0, 0, 0, 0, 1]\nclass = sun", fillcolor="#e539c0"] ;
502 -> 510 ;
511 [label="temp_max <= 15.47\ngini = 0.405\nsamples = 35\nvalue = [26, 2, 0, 0, 7]\nclass = drizzle", fillcolor="#edaa79"] ;
479 -> 511 ;
512 [label="wind <= 3.011\ngini = 0.074\nsamples = 26\nvalue = [25, 0, 0, 0, 1]\nclass = drizzle", fillcolor="#e68641"] ;
511 -> 512 ;
513 [label="temp_min <= 4.136\ngini = 0.278\nsamples = 6\nvalue = [5, 0, 0, 0, 1]\nclass = drizzle", fillcolor="#ea9a61"] ;
512 -> 513 ;
514 [label="gini = 0.0\nsamples = 1\nvalue = [0, 0, 0, 0, 1]\nclass = sun", fillcolor="#e539c0"] ;
513 -> 514 ;
515 [label="gini = 0.0\nsamples = 5\nvalue = [5, 0, 0, 0, 0]\nclass = drizzle", fillcolor="#e58139"] ;
513 -> 515 ;
516 [label="gini = 0.0\nsamples = 20\nvalue = [20, 0, 0, 0, 0]\nclass = drizzle", fillcolor="#e58139"] ;
512 -> 516 ;
517 [label="wind <= 2.75\ngini = 0.494\nsamples = 9\nvalue = [1, 2, 0, 0, 6]\nclass = sun", fillcolor="#f08edb"] ;
511 -> 517 ;
518 [label="gini = 0.0\nsamples = 2\nvalue = [0, 2, 0, 0, 0]\nclass = fog", fillcolor="#7be539"] ;
517 -> 518 ;
519 [label="wind <= 3.931\ngini = 0.245\nsamples = 7\nvalue = [1, 0, 0, 0, 6]\nclass = sun", fillcolor="#e95acb"] ;
517 -> 519 ;
520 [label="gini = 0.0\nsamples = 6\nvalue = [0, 0, 0, 0, 6]\nclass = sun", fillcolor="#e539c0"] ;
519 -> 520 ;
521 [label="gini = 0.0\nsamples = 1\nvalue = [1, 0, 0, 0, 0]\nclass = drizzle", fillcolor="#e58139"] ;
519 -> 521 ;
522 [label="temp_max <= 21.678\ngini = 0.657\nsamples = 387\nvalue = [86, 101, 17, 0, 183]\nclass = sun", fillcolor="#f8c6ed"] ;
478 -> 522 ;
523 [label="wind <= 2.89\ngini = 0.642\nsamples = 154\nvalue = [16, 54, 12, 0, 72]\nclass = sun", fillcolor="#fadbf4"] ;
522 -> 523 ;
524 [label="wind <= 2.6\ngini = 0.558\nsamples = 68\nvalue = [6, 39, 1, 0, 22]\nclass = fog", fillcolor="#cef5b6"] ;
523 -> 524 ;
525 [label="temp_min <= 7.5\ngini = 0.439\nsamples = 14\nvalue = [0, 3, 1, 0, 10]\nclass = sun", fillcolor="#ee81d7"] ;
524 -> 525 ;
526 [label="temp_min <= 5.85\ngini = 0.56\nsamples = 5\nvalue = [0, 3, 1, 0, 1]\nclass = fog", fillcolor="#bdf29c"] ;
525 -> 526 ;
527 [label="gini = 0.0\nsamples = 1\nvalue = [0, 0, 0, 0, 1]\nclass = sun", fillcolor="#e539c0"] ;
526 -> 527 ;
528 [label="temp_max <= 11.7\ngini = 0.375\nsamples = 4\nvalue = [0, 3, 1, 0, 0]\nclass = fog", fillcolor="#a7ee7b"] ;
526 -> 528 ;
529 [label="gini = 0.0\nsamples = 1\nvalue = [0, 0, 1, 0, 0]\nclass = rain", fillcolor="#39e5c5"] ;
528 -> 529 ;
530 [label="gini = 0.0\nsamples = 3\nvalue = [0, 3, 0, 0, 0]\nclass = fog", fillcolor="#7be539"] ;
528 -> 530 ;
531 [label="gini = 0.0\nsamples = 9\nvalue = [0, 0, 0, 0, 9]\nclass = sun", fillcolor="#e539c0"] ;
525 -> 531 ;
532 [label="temp_min <= 9.837\ngini = 0.494\nsamples = 54\nvalue = [6, 36, 0, 0, 12]\nclass = fog", fillcolor="#b4f08e"] ;
524 -> 532 ;
533 [label="temp_min <= 7.123\ngini = 0.314\nsamples = 33\nvalue = [3, 27, 0, 0, 3]\nclass = fog", fillcolor="#95ea61"] ;
532 -> 533 ;
534 [label="temp_max <= 15.619\ngini = 0.64\nsamples = 5\nvalue = [2, 1, 0, 0, 2]\nclass = drizzle", fillcolor="#ffffff"] ;
533 -> 534 ;
535 [label="gini = 0.0\nsamples = 2\nvalue = [0, 0, 0, 0, 2]\nclass = sun", fillcolor="#e539c0"] ;
534 -> 535 ;
536 [label="wind <= 2.678\ngini = 0.444\nsamples = 3\nvalue = [2, 1, 0, 0, 0]\nclass = drizzle", fillcolor="#f2c09c"] ;
534 -> 536 ;
537 [label="gini = 0.0\nsamples = 1\nvalue = [0, 1, 0, 0, 0]\nclass = fog", fillcolor="#7be539"] ;
536 -> 537 ;
538 [label="gini = 0.0\nsamples = 2\nvalue = [2, 0, 0, 0, 0]\nclass = drizzle", fillcolor="#e58139"] ;
536 -> 538 ;
539 [label="temp_max <= 12.25\ngini = 0.135\nsamples = 28\nvalue = [1, 26, 0, 0, 1]\nclass = fog", fillcolor="#85e748"] ;
533 -> 539 ;
540 [label="gini = 0.0\nsamples = 1\nvalue = [0, 0, 0, 0, 1]\nclass = sun", fillcolor="#e539c0"] ;
539 -> 540 ;
541 [label="wind <= 2.613\ngini = 0.071\nsamples = 27\nvalue = [1, 26, 0, 0, 0]\nclass = fog", fillcolor="#80e641"] ;
539 -> 541 ;
542 [label="temp_min <= 8.391\ngini = 0.5\nsamples = 2\nvalue = [1, 1, 0, 0, 0]\nclass = drizzle", fillcolor="#ffffff"] ;
541 -> 542 ;
543 [label="gini = 0.0\nsamples = 1\nvalue = [1, 0, 0, 0, 0]\nclass = drizzle", fillcolor="#e58139"] ;
542 -> 543 ;
544 [label="gini = 0.0\nsamples = 1\nvalue = [0, 1, 0, 0, 0]\nclass = fog", fillcolor="#7be539"] ;
542 -> 544 ;
545 [label="gini = 0.0\nsamples = 25\nvalue = [0, 25, 0, 0, 0]\nclass = fog", fillcolor="#7be539"] ;
541 -> 545 ;
546 [label="temp_max <= 19.768\ngini = 0.612\nsamples = 21\nvalue = [3, 9, 0, 0, 9]\nclass = fog", fillcolor="#ffffff"] ;
532 -> 546 ;
547 [label="temp_min <= 12.244\ngini = 0.42\nsamples = 10\nvalue = [3, 0, 0, 0, 7]\nclass = sun", fillcolor="#f08edb"] ;
546 -> 547 ;
548 [label="gini = 0.0\nsamples = 6\nvalue = [0, 0, 0, 0, 6]\nclass = sun", fillcolor="#e539c0"] ;
547 -> 548 ;
549 [label="temp_min <= 14.211\ngini = 0.375\nsamples = 4\nvalue = [3, 0, 0, 0, 1]\nclass = drizzle", fillcolor="#eeab7b"] ;
547 -> 549 ;
550 [label="gini = 0.0\nsamples = 3\nvalue = [3, 0, 0, 0, 0]\nclass = drizzle", fillcolor="#e58139"] ;
549 -> 550 ;
551 [label="gini = 0.0\nsamples = 1\nvalue = [0, 0, 0, 0, 1]\nclass = sun", fillcolor="#e539c0"] ;
549 -> 551 ;
552 [label="temp_min <= 12.5\ngini = 0.298\nsamples = 11\nvalue = [0, 9, 0, 0, 2]\nclass = fog", fillcolor="#98eb65"] ;
546 -> 552 ;
553 [label="gini = 0.0\nsamples = 7\nvalue = [0, 7, 0, 0, 0]\nclass = fog", fillcolor="#7be539"] ;
552 -> 553 ;
554 [label="wind <= 2.693\ngini = 0.5\nsamples = 4\nvalue = [0, 2, 0, 0, 2]\nclass = fog", fillcolor="#ffffff"] ;
552 -> 554 ;
555 [label="gini = 0.0\nsamples = 2\nvalue = [0, 2, 0, 0, 0]\nclass = fog", fillcolor="#7be539"] ;
554 -> 555 ;
556 [label="gini = 0.0\nsamples = 2\nvalue = [0, 0, 0, 0, 2]\nclass = sun", fillcolor="#e539c0"] ;
554 -> 556 ;
557 [label="temp_max <= 20.725\ngini = 0.602\nsamples = 86\nvalue = [10, 15, 11, 0, 50]\nclass = sun", fillcolor="#f29de0"] ;
523 -> 557 ;
558 [label="temp_min <= 7.747\ngini = 0.523\nsamples = 64\nvalue = [9, 3, 10, 0, 42]\nclass = sun", fillcolor="#f08ada"] ;
557 -> 558 ;
559 [label="temp_max <= 16.538\ngini = 0.62\nsamples = 23\nvalue = [8, 0, 4, 0, 11]\nclass = sun", fillcolor="#fad7f2"] ;
558 -> 559 ;
560 [label="wind <= 3.2\ngini = 0.444\nsamples = 9\nvalue = [0, 0, 3, 0, 6]\nclass = sun", fillcolor="#f29ce0"] ;
559 -> 560 ;
561 [label="wind <= 2.95\ngini = 0.444\nsamples = 3\nvalue = [0, 0, 2, 0, 1]\nclass = rain", fillcolor="#9cf2e2"] ;
560 -> 561 ;
562 [label="temp_max <= 15.25\ngini = 0.5\nsamples = 2\nvalue = [0, 0, 1, 0, 1]\nclass = rain", fillcolor="#ffffff"] ;
561 -> 562 ;
563 [label="gini = 0.0\nsamples = 1\nvalue = [0, 0, 0, 0, 1]\nclass = sun", fillcolor="#e539c0"] ;
562 -> 563 ;
564 [label="gini = 0.0\nsamples = 1\nvalue = [0, 0, 1, 0, 0]\nclass = rain", fillcolor="#39e5c5"] ;
562 -> 564 ;
565 [label="gini = 0.0\nsamples = 1\nvalue = [0, 0, 1, 0, 0]\nclass = rain", fillcolor="#39e5c5"] ;
561 -> 565 ;
566 [label="wind <= 3.75\ngini = 0.278\nsamples = 6\nvalue = [0, 0, 1, 0, 5]\nclass = sun", fillcolor="#ea61cd"] ;
560 -> 566 ;
567 [label="gini = 0.0\nsamples = 3\nvalue = [0, 0, 0, 0, 3]\nclass = sun", fillcolor="#e539c0"] ;
566 -> 567 ;
568 [label="temp_max <= 12.2\ngini = 0.444\nsamples = 3\nvalue = [0, 0, 1, 0, 2]\nclass = sun", fillcolor="#f29ce0"] ;
566 -> 568 ;
569 [label="gini = 0.0\nsamples = 1\nvalue = [0, 0, 0, 0, 1]\nclass = sun", fillcolor="#e539c0"] ;
568 -> 569 ;
570 [label="wind <= 4.0\ngini = 0.5\nsamples = 2\nvalue = [0, 0, 1, 0, 1]\nclass = rain", fillcolor="#ffffff"] ;
568 -> 570 ;
571 [label="gini = 0.0\nsamples = 1\nvalue = [0, 0, 1, 0, 0]\nclass = rain", fillcolor="#39e5c5"] ;
570 -> 571 ;
572 [label="gini = 0.0\nsamples = 1\nvalue = [0, 0, 0, 0, 1]\nclass = sun", fillcolor="#e539c0"] ;
570 -> 572 ;
573 [label="temp_max <= 20.27\ngini = 0.541\nsamples = 14\nvalue = [8, 0, 1, 0, 5]\nclass = drizzle", fillcolor="#f6d5bd"] ;
559 -> 573 ;
574 [label="wind <= 2.913\ngini = 0.34\nsamples = 10\nvalue = [8, 0, 1, 0, 1]\nclass = drizzle", fillcolor="#eb9d65"] ;
573 -> 574 ;
575 [label="gini = 0.0\nsamples = 1\nvalue = [0, 0, 1, 0, 0]\nclass = rain", fillcolor="#39e5c5"] ;
574 -> 575 ;
576 [label="temp_max <= 18.248\ngini = 0.198\nsamples = 9\nvalue = [8, 0, 0, 0, 1]\nclass = drizzle", fillcolor="#e89152"] ;
574 -> 576 ;
577 [label="temp_max <= 17.388\ngini = 0.5\nsamples = 2\nvalue = [1, 0, 0, 0, 1]\nclass = drizzle", fillcolor="#ffffff"] ;
576 -> 577 ;
578 [label="gini = 0.0\nsamples = 1\nvalue = [1, 0, 0, 0, 0]\nclass = drizzle", fillcolor="#e58139"] ;
577 -> 578 ;
579 [label="gini = 0.0\nsamples = 1\nvalue = [0, 0, 0, 0, 1]\nclass = sun", fillcolor="#e539c0"] ;
577 -> 579 ;
580 [label="gini = 0.0\nsamples = 7\nvalue = [7, 0, 0, 0, 0]\nclass = drizzle", fillcolor="#e58139"] ;
576 -> 580 ;
581 [label="gini = 0.0\nsamples = 4\nvalue = [0, 0, 0, 0, 4]\nclass = sun", fillcolor="#e539c0"] ;
573 -> 581 ;
582 [label="temp_max <= 20.661\ngini = 0.401\nsamples = 41\nvalue = [1, 3, 6, 0, 31]\nclass = sun", fillcolor="#ec72d2"] ;
558 -> 582 ;
583 [label="temp_max <= 15.3\ngini = 0.371\nsamples = 40\nvalue = [0, 3, 6, 0, 31]\nclass = sun", fillcolor="#ec6dd1"] ;
582 -> 583 ;
584 [label="gini = 0.0\nsamples = 1\nvalue = [0, 1, 0, 0, 0]\nclass = fog", fillcolor="#7be539"] ;
583 -> 584 ;
585 [label="temp_max <= 20.211\ngini = 0.342\nsamples = 39\nvalue = [0, 2, 6, 0, 31]\nclass = sun", fillcolor="#eb69cf"] ;
583 -> 585 ;
586 [label="wind <= 3.05\ngini = 0.298\nsamples = 33\nvalue = [0, 0, 6, 0, 27]\nclass = sun", fillcolor="#eb65ce"] ;
585 -> 586 ;
587 [label="gini = 0.0\nsamples = 9\nvalue = [0, 0, 0, 0, 9]\nclass = sun", fillcolor="#e539c0"] ;
586 -> 587 ;
588 [label="wind <= 3.45\ngini = 0.375\nsamples = 24\nvalue = [0, 0, 6, 0, 18]\nclass = sun", fillcolor="#ee7bd5"] ;
586 -> 588 ;
589 [label="temp_min <= 9.15\ngini = 0.486\nsamples = 12\nvalue = [0, 0, 5, 0, 7]\nclass = sun", fillcolor="#f8c6ed"] ;
588 -> 589 ;
590 [label="gini = 0.0\nsamples = 2\nvalue = [0, 0, 2, 0, 0]\nclass = rain", fillcolor="#39e5c5"] ;
589 -> 590 ;
591 [label="wind <= 3.25\ngini = 0.42\nsamples = 10\nvalue = [0, 0, 3, 0, 7]\nclass = sun", fillcolor="#f08edb"] ;
589 -> 591 ;
592 [label="gini = 0.0\nsamples = 5\nvalue = [0, 0, 0, 0, 5]\nclass = sun", fillcolor="#e539c0"] ;
591 -> 592 ;
593 [label="temp_min <= 10.85\ngini = 0.48\nsamples = 5\nvalue = [0, 0, 3, 0, 2]\nclass = rain", fillcolor="#bdf6ec"] ;
591 -> 593 ;
594 [label="temp_max <= 18.6\ngini = 0.5\nsamples = 4\nvalue = [0, 0, 2, 0, 2]\nclass = rain", fillcolor="#ffffff"] ;
593 -> 594 ;
595 [label="temp_min <= 10.3\ngini = 0.444\nsamples = 3\nvalue = [0, 0, 2, 0, 1]\nclass = rain", fillcolor="#9cf2e2"] ;
594 -> 595 ;
596 [label="gini = 0.0\nsamples = 1\nvalue = [0, 0, 1, 0, 0]\nclass = rain", fillcolor="#39e5c5"] ;
595 -> 596 ;
597 [label="temp_max <= 17.5\ngini = 0.5\nsamples = 2\nvalue = [0, 0, 1, 0, 1]\nclass = rain", fillcolor="#ffffff"] ;
595 -> 597 ;
598 [label="gini = 0.0\nsamples = 1\nvalue = [0, 0, 0, 0, 1]\nclass = sun", fillcolor="#e539c0"] ;
597 -> 598 ;
599 [label="gini = 0.0\nsamples = 1\nvalue = [0, 0, 1, 0, 0]\nclass = rain", fillcolor="#39e5c5"] ;
597 -> 599 ;
600 [label="gini = 0.0\nsamples = 1\nvalue = [0, 0, 0, 0, 1]\nclass = sun", fillcolor="#e539c0"] ;
594 -> 600 ;
601 [label="gini = 0.0\nsamples = 1\nvalue = [0, 0, 1, 0, 0]\nclass = rain", fillcolor="#39e5c5"] ;
593 -> 601 ;
602 [label="temp_min <= 13.05\ngini = 0.153\nsamples = 12\nvalue = [0, 0, 1, 0, 11]\nclass = sun", fillcolor="#e74bc6"] ;
588 -> 602 ;
603 [label="gini = 0.0\nsamples = 11\nvalue = [0, 0, 0, 0, 11]\nclass = sun", fillcolor="#e539c0"] ;
602 -> 603 ;
604 [label="gini = 0.0\nsamples = 1\nvalue = [0, 0, 1, 0, 0]\nclass = rain", fillcolor="#39e5c5"] ;
602 -> 604 ;
605 [label="wind <= 3.45\ngini = 0.444\nsamples = 6\nvalue = [0, 2, 0, 0, 4]\nclass = sun", fillcolor="#f29ce0"] ;
585 -> 605 ;
606 [label="temp_min <= 12.25\ngini = 0.444\nsamples = 3\nvalue = [0, 2, 0, 0, 1]\nclass = fog", fillcolor="#bdf29c"] ;
605 -> 606 ;
607 [label="gini = 0.0\nsamples = 2\nvalue = [0, 2, 0, 0, 0]\nclass = fog", fillcolor="#7be539"] ;
606 -> 607 ;
608 [label="gini = 0.0\nsamples = 1\nvalue = [0, 0, 0, 0, 1]\nclass = sun", fillcolor="#e539c0"] ;
606 -> 608 ;
609 [label="gini = 0.0\nsamples = 3\nvalue = [0, 0, 0, 0, 3]\nclass = sun", fillcolor="#e539c0"] ;
605 -> 609 ;
610 [label="gini = 0.0\nsamples = 1\nvalue = [1, 0, 0, 0, 0]\nclass = drizzle", fillcolor="#e58139"] ;
582 -> 610 ;
611 [label="temp_max <= 21.093\ngini = 0.566\nsamples = 22\nvalue = [1, 12, 1, 0, 8]\nclass = fog", fillcolor="#d9f8c6"] ;
557 -> 611 ;
612 [label="gini = 0.0\nsamples = 7\nvalue = [0, 7, 0, 0, 0]\nclass = fog", fillcolor="#7be539"] ;
611 -> 612 ;
613 [label="temp_min <= 8.85\ngini = 0.596\nsamples = 15\nvalue = [1, 5, 1, 0, 8]\nclass = sun", fillcolor="#f7c4ec"] ;
611 -> 613 ;
614 [label="gini = 0.0\nsamples = 4\nvalue = [0, 0, 0, 0, 4]\nclass = sun", fillcolor="#e539c0"] ;
613 -> 614 ;
615 [label="temp_min <= 13.822\ngini = 0.645\nsamples = 11\nvalue = [1, 5, 1, 0, 4]\nclass = fog", fillcolor="#ecfbe3"] ;
613 -> 615 ;
616 [label="wind <= 3.374\ngini = 0.278\nsamples = 6\nvalue = [0, 5, 0, 0, 1]\nclass = fog", fillcolor="#95ea61"] ;
615 -> 616 ;
617 [label="gini = 0.0\nsamples = 3\nvalue = [0, 3, 0, 0, 0]\nclass = fog", fillcolor="#7be539"] ;
616 -> 617 ;
618 [label="temp_min <= 10.8\ngini = 0.444\nsamples = 3\nvalue = [0, 2, 0, 0, 1]\nclass = fog", fillcolor="#bdf29c"] ;
616 -> 618 ;
619 [label="gini = 0.0\nsamples = 1\nvalue = [0, 1, 0, 0, 0]\nclass = fog", fillcolor="#7be539"] ;
618 -> 619 ;
620 [label="gini = 0.5\nsamples = 2\nvalue = [0, 1, 0, 0, 1]\nclass = fog", fillcolor="#ffffff"] ;
618 -> 620 ;
621 [label="temp_min <= 14.387\ngini = 0.56\nsamples = 5\nvalue = [1, 0, 1, 0, 3]\nclass = sun", fillcolor="#f29ce0"] ;
615 -> 621 ;
622 [label="gini = 0.0\nsamples = 1\nvalue = [1, 0, 0, 0, 0]\nclass = drizzle", fillcolor="#e58139"] ;
621 -> 622 ;
623 [label="temp_min <= 14.7\ngini = 0.375\nsamples = 4\nvalue = [0, 0, 1, 0, 3]\nclass = sun", fillcolor="#ee7bd5"] ;
621 -> 623 ;
624 [label="gini = 0.0\nsamples = 2\nvalue = [0, 0, 0, 0, 2]\nclass = sun", fillcolor="#e539c0"] ;
623 -> 624 ;
625 [label="wind <= 3.9\ngini = 0.5\nsamples = 2\nvalue = [0, 0, 1, 0, 1]\nclass = rain", fillcolor="#ffffff"] ;
623 -> 625 ;
626 [label="gini = 0.0\nsamples = 1\nvalue = [0, 0, 0, 0, 1]\nclass = sun", fillcolor="#e539c0"] ;
625 -> 626 ;
627 [label="gini = 0.0\nsamples = 1\nvalue = [0, 0, 1, 0, 0]\nclass = rain", fillcolor="#39e5c5"] ;
625 -> 627 ;
628 [label="temp_min <= 13.904\ngini = 0.642\nsamples = 233\nvalue = [70, 47, 5, 0, 111]\nclass = sun", fillcolor="#f8cdef"] ;
522 -> 628 ;
629 [label="temp_min <= 11.064\ngini = 0.529\nsamples = 108\nvalue = [28, 9, 3, 0, 68]\nclass = sun", fillcolor="#f29ce0"] ;
628 -> 629 ;
630 [label="temp_min <= 10.064\ngini = 0.554\nsamples = 28\nvalue = [15, 0, 2, 0, 11]\nclass = drizzle", fillcolor="#f9e1d0"] ;
629 -> 630 ;
631 [label="wind <= 3.913\ngini = 0.531\nsamples = 16\nvalue = [4, 0, 2, 0, 10]\nclass = sun", fillcolor="#f29ce0"] ;
630 -> 631 ;
632 [label="temp_max <= 24.372\ngini = 0.449\nsamples = 14\nvalue = [2, 0, 2, 0, 10]\nclass = sun", fillcolor="#ee7bd5"] ;
631 -> 632 ;
633 [label="temp_max <= 23.509\ngini = 0.593\nsamples = 9\nvalue = [2, 0, 2, 0, 5]\nclass = sun", fillcolor="#f4aae4"] ;
632 -> 633 ;
634 [label="wind <= 3.2\ngini = 0.444\nsamples = 6\nvalue = [0, 0, 2, 0, 4]\nclass = sun", fillcolor="#f29ce0"] ;
633 -> 634 ;
635 [label="temp_max <= 22.5\ngini = 0.5\nsamples = 4\nvalue = [0, 0, 2, 0, 2]\nclass = rain", fillcolor="#ffffff"] ;
634 -> 635 ;
636 [label="gini = 0.0\nsamples = 1\nvalue = [0, 0, 1, 0, 0]\nclass = rain", fillcolor="#39e5c5"] ;
635 -> 636 ;
637 [label="wind <= 2.8\ngini = 0.444\nsamples = 3\nvalue = [0, 0, 1, 0, 2]\nclass = sun", fillcolor="#f29ce0"] ;
635 -> 637 ;
638 [label="temp_min <= 8.05\ngini = 0.5\nsamples = 2\nvalue = [0, 0, 1, 0, 1]\nclass = rain", fillcolor="#ffffff"] ;
637 -> 638 ;
639 [label="gini = 0.0\nsamples = 1\nvalue = [0, 0, 0, 0, 1]\nclass = sun", fillcolor="#e539c0"] ;
638 -> 639 ;
640 [label="gini = 0.0\nsamples = 1\nvalue = [0, 0, 1, 0, 0]\nclass = rain", fillcolor="#39e5c5"] ;
638 -> 640 ;
641 [label="gini = 0.0\nsamples = 1\nvalue = [0, 0, 0, 0, 1]\nclass = sun", fillcolor="#e539c0"] ;
637 -> 641 ;
642 [label="gini = 0.0\nsamples = 2\nvalue = [0, 0, 0, 0, 2]\nclass = sun", fillcolor="#e539c0"] ;
634 -> 642 ;
643 [label="wind <= 2.838\ngini = 0.444\nsamples = 3\nvalue = [2, 0, 0, 0, 1]\nclass = drizzle", fillcolor="#f2c09c"] ;
633 -> 643 ;
644 [label="gini = 0.0\nsamples = 1\nvalue = [0, 0, 0, 0, 1]\nclass = sun", fillcolor="#e539c0"] ;
643 -> 644 ;
645 [label="gini = 0.0\nsamples = 2\nvalue = [2, 0, 0, 0, 0]\nclass = drizzle", fillcolor="#e58139"] ;
643 -> 645 ;
646 [label="gini = 0.0\nsamples = 5\nvalue = [0, 0, 0, 0, 5]\nclass = sun", fillcolor="#e539c0"] ;
632 -> 646 ;
647 [label="gini = 0.0\nsamples = 2\nvalue = [2, 0, 0, 0, 0]\nclass = drizzle", fillcolor="#e58139"] ;
631 -> 647 ;
648 [label="temp_max <= 24.987\ngini = 0.153\nsamples = 12\nvalue = [11, 0, 0, 0, 1]\nclass = drizzle", fillcolor="#e78c4b"] ;
630 -> 648 ;
649 [label="gini = 0.0\nsamples = 9\nvalue = [9, 0, 0, 0, 0]\nclass = drizzle", fillcolor="#e58139"] ;
648 -> 649 ;
650 [label="temp_min <= 10.644\ngini = 0.444\nsamples = 3\nvalue = [2, 0, 0, 0, 1]\nclass = drizzle", fillcolor="#f2c09c"] ;
648 -> 650 ;
651 [label="gini = 0.0\nsamples = 1\nvalue = [0, 0, 0, 0, 1]\nclass = sun", fillcolor="#e539c0"] ;
650 -> 651 ;
652 [label="gini = 0.0\nsamples = 2\nvalue = [2, 0, 0, 0, 0]\nclass = drizzle", fillcolor="#e58139"] ;
650 -> 652 ;
653 [label="wind <= 2.962\ngini = 0.453\nsamples = 80\nvalue = [13, 9, 1, 0, 57]\nclass = sun", fillcolor="#ee7dd6"] ;
629 -> 653 ;
654 [label="wind <= 2.601\ngini = 0.622\nsamples = 42\nvalue = [12, 9, 0, 0, 21]\nclass = sun", fillcolor="#f7c4ec"] ;
653 -> 654 ;
655 [label="gini = 0.0\nsamples = 9\nvalue = [0, 0, 0, 0, 9]\nclass = sun", fillcolor="#e539c0"] ;
654 -> 655 ;
656 [label="temp_min <= 13.877\ngini = 0.661\nsamples = 33\nvalue = [12, 9, 0, 0, 12]\nclass = drizzle", fillcolor="#ffffff"] ;
654 -> 656 ;
657 [label="temp_max <= 27.003\ngini = 0.651\nsamples = 28\nvalue = [12, 9, 0, 0, 7]\nclass = drizzle", fillcolor="#fbebe0"] ;
656 -> 657 ;
658 [label="wind <= 2.772\ngini = 0.605\nsamples = 20\nvalue = [10, 3, 0, 0, 7]\nclass = drizzle", fillcolor="#f9e2d1"] ;
657 -> 658 ;
659 [label="temp_max <= 23.432\ngini = 0.52\nsamples = 14\nvalue = [9, 3, 0, 0, 2]\nclass = drizzle", fillcolor="#f1ba93"] ;
658 -> 659 ;
660 [label="temp_max <= 22.279\ngini = 0.444\nsamples = 3\nvalue = [0, 2, 0, 0, 1]\nclass = fog", fillcolor="#bdf29c"] ;
659 -> 660 ;
661 [label="gini = 0.0\nsamples = 2\nvalue = [0, 2, 0, 0, 0]\nclass = fog", fillcolor="#7be539"] ;
660 -> 661 ;
662 [label="gini = 0.0\nsamples = 1\nvalue = [0, 0, 0, 0, 1]\nclass = sun", fillcolor="#e539c0"] ;
660 -> 662 ;
663 [label="temp_min <= 11.48\ngini = 0.314\nsamples = 11\nvalue = [9, 1, 0, 0, 1]\nclass = drizzle", fillcolor="#ea9a61"] ;
659 -> 663 ;
664 [label="gini = 0.0\nsamples = 1\nvalue = [0, 0, 0, 0, 1]\nclass = sun", fillcolor="#e539c0"] ;
663 -> 664 ;
665 [label="temp_min <= 13.446\ngini = 0.18\nsamples = 10\nvalue = [9, 1, 0, 0, 0]\nclass = drizzle", fillcolor="#e88f4f"] ;
663 -> 665 ;
666 [label="gini = 0.0\nsamples = 8\nvalue = [8, 0, 0, 0, 0]\nclass = drizzle", fillcolor="#e58139"] ;
665 -> 666 ;
667 [label="wind <= 2.699\ngini = 0.5\nsamples = 2\nvalue = [1, 1, 0, 0, 0]\nclass = drizzle", fillcolor="#ffffff"] ;
665 -> 667 ;
668 [label="gini = 0.0\nsamples = 1\nvalue = [0, 1, 0, 0, 0]\nclass = fog", fillcolor="#7be539"] ;
667 -> 668 ;
669 [label="gini = 0.0\nsamples = 1\nvalue = [1, 0, 0, 0, 0]\nclass = drizzle", fillcolor="#e58139"] ;
667 -> 669 ;
670 [label="temp_min <= 13.549\ngini = 0.278\nsamples = 6\nvalue = [1, 0, 0, 0, 5]\nclass = sun", fillcolor="#ea61cd"] ;
658 -> 670 ;
671 [label="gini = 0.0\nsamples = 5\nvalue = [0, 0, 0, 0, 5]\nclass = sun", fillcolor="#e539c0"] ;
670 -> 671 ;
672 [label="gini = 0.0\nsamples = 1\nvalue = [1, 0, 0, 0, 0]\nclass = drizzle", fillcolor="#e58139"] ;
670 -> 672 ;
673 [label="wind <= 2.733\ngini = 0.375\nsamples = 8\nvalue = [2, 6, 0, 0, 0]\nclass = fog", fillcolor="#a7ee7b"] ;
657 -> 673 ;
674 [label="gini = 0.0\nsamples = 1\nvalue = [1, 0, 0, 0, 0]\nclass = drizzle", fillcolor="#e58139"] ;
673 -> 674 ;
675 [label="temp_min <= 13.513\ngini = 0.245\nsamples = 7\nvalue = [1, 6, 0, 0, 0]\nclass = fog", fillcolor="#91e95a"] ;
673 -> 675 ;
676 [label="gini = 0.0\nsamples = 5\nvalue = [0, 5, 0, 0, 0]\nclass = fog", fillcolor="#7be539"] ;
675 -> 676 ;
677 [label="wind <= 2.794\ngini = 0.5\nsamples = 2\nvalue = [1, 1, 0, 0, 0]\nclass = drizzle", fillcolor="#ffffff"] ;
675 -> 677 ;
678 [label="gini = 0.0\nsamples = 1\nvalue = [0, 1, 0, 0, 0]\nclass = fog", fillcolor="#7be539"] ;
677 -> 678 ;
679 [label="gini = 0.0\nsamples = 1\nvalue = [1, 0, 0, 0, 0]\nclass = drizzle", fillcolor="#e58139"] ;
677 -> 679 ;
680 [label="gini = 0.0\nsamples = 5\nvalue = [0, 0, 0, 0, 5]\nclass = sun", fillcolor="#e539c0"] ;
656 -> 680 ;
681 [label="temp_min <= 13.05\ngini = 0.101\nsamples = 38\nvalue = [1, 0, 1, 0, 36]\nclass = sun", fillcolor="#e644c3"] ;
653 -> 681 ;
682 [label="gini = 0.0\nsamples = 23\nvalue = [0, 0, 0, 0, 23]\nclass = sun", fillcolor="#e539c0"] ;
681 -> 682 ;
683 [label="temp_min <= 13.878\ngini = 0.24\nsamples = 15\nvalue = [1, 0, 1, 0, 13]\nclass = sun", fillcolor="#e955c9"] ;
681 -> 683 ;
684 [label="temp_max <= 23.85\ngini = 0.5\nsamples = 6\nvalue = [1, 0, 1, 0, 4]\nclass = sun", fillcolor="#ef88d9"] ;
683 -> 684 ;
685 [label="gini = 0.0\nsamples = 1\nvalue = [0, 0, 1, 0, 0]\nclass = rain", fillcolor="#39e5c5"] ;
684 -> 685 ;
686 [label="temp_min <= 13.578\ngini = 0.32\nsamples = 5\nvalue = [1, 0, 0, 0, 4]\nclass = sun", fillcolor="#ec6ad0"] ;
684 -> 686 ;
687 [label="gini = 0.0\nsamples = 4\nvalue = [0, 0, 0, 0, 4]\nclass = sun", fillcolor="#e539c0"] ;
686 -> 687 ;
688 [label="gini = 0.0\nsamples = 1\nvalue = [1, 0, 0, 0, 0]\nclass = drizzle", fillcolor="#e58139"] ;
686 -> 688 ;
689 [label="gini = 0.0\nsamples = 9\nvalue = [0, 0, 0, 0, 9]\nclass = sun", fillcolor="#e539c0"] ;
683 -> 689 ;
690 [label="wind <= 3.519\ngini = 0.676\nsamples = 125\nvalue = [42, 38, 2, 0, 43]\nclass = sun", fillcolor="#fffdfe"] ;
628 -> 690 ;
691 [label="temp_min <= 14.367\ngini = 0.636\nsamples = 85\nvalue = [37, 13, 2, 0, 33]\nclass = drizzle", fillcolor="#fdf5f0"] ;
690 -> 691 ;
692 [label="wind <= 3.267\ngini = 0.153\nsamples = 12\nvalue = [11, 1, 0, 0, 0]\nclass = drizzle", fillcolor="#e78c4b"] ;
691 -> 692 ;
693 [label="gini = 0.0\nsamples = 9\nvalue = [9, 0, 0, 0, 0]\nclass = drizzle", fillcolor="#e58139"] ;
692 -> 693 ;
694 [label="temp_max <= 24.781\ngini = 0.444\nsamples = 3\nvalue = [2, 1, 0, 0, 0]\nclass = drizzle", fillcolor="#f2c09c"] ;
692 -> 694 ;
695 [label="gini = 0.0\nsamples = 2\nvalue = [2, 0, 0, 0, 0]\nclass = drizzle", fillcolor="#e58139"] ;
694 -> 695 ;
696 [label="gini = 0.0\nsamples = 1\nvalue = [0, 1, 0, 0, 0]\nclass = fog", fillcolor="#7be539"] ;
694 -> 696 ;
697 [label="temp_max <= 29.438\ngini = 0.641\nsamples = 73\nvalue = [26, 12, 2, 0, 33]\nclass = sun", fillcolor="#fbe2f6"] ;
691 -> 697 ;
698 [label="temp_min <= 14.965\ngini = 0.587\nsamples = 48\nvalue = [10, 8, 2, 0, 28]\nclass = sun", fillcolor="#f3a1e1"] ;
697 -> 698 ;
699 [label="temp_max <= 26.4\ngini = 0.722\nsamples = 18\nvalue = [5, 6, 2, 0, 5]\nclass = fog", fillcolor="#f5fdf0"] ;
698 -> 699 ;
700 [label="temp_max <= 23.889\ngini = 0.54\nsamples = 10\nvalue = [3, 6, 0, 0, 1]\nclass = fog", fillcolor="#c6f4aa"] ;
699 -> 700 ;
701 [label="wind <= 2.8\ngini = 0.375\nsamples = 4\nvalue = [3, 0, 0, 0, 1]\nclass = drizzle", fillcolor="#eeab7b"] ;
700 -> 701 ;
702 [label="gini = 0.0\nsamples = 1\nvalue = [0, 0, 0, 0, 1]\nclass = sun", fillcolor="#e539c0"] ;
701 -> 702 ;
703 [label="gini = 0.0\nsamples = 3\nvalue = [3, 0, 0, 0, 0]\nclass = drizzle", fillcolor="#e58139"] ;
701 -> 703 ;
704 [label="gini = 0.0\nsamples = 6\nvalue = [0, 6, 0, 0, 0]\nclass = fog", fillcolor="#7be539"] ;
700 -> 704 ;
705 [label="temp_min <= 14.403\ngini = 0.625\nsamples = 8\nvalue = [2, 0, 2, 0, 4]\nclass = sun", fillcolor="#f6bdea"] ;
699 -> 705 ;
706 [label="wind <= 2.95\ngini = 0.32\nsamples = 5\nvalue = [0, 0, 1, 0, 4]\nclass = sun", fillcolor="#ec6ad0"] ;
705 -> 706 ;
707 [label="temp_max <= 28.6\ngini = 0.5\nsamples = 2\nvalue = [0, 0, 1, 0, 1]\nclass = rain", fillcolor="#ffffff"] ;
706 -> 707 ;
708 [label="gini = 0.0\nsamples = 1\nvalue = [0, 0, 1, 0, 0]\nclass = rain", fillcolor="#39e5c5"] ;
707 -> 708 ;
709 [label="gini = 0.0\nsamples = 1\nvalue = [0, 0, 0, 0, 1]\nclass = sun", fillcolor="#e539c0"] ;
707 -> 709 ;
710 [label="gini = 0.0\nsamples = 3\nvalue = [0, 0, 0, 0, 3]\nclass = sun", fillcolor="#e539c0"] ;
706 -> 710 ;
711 [label="wind <= 2.851\ngini = 0.444\nsamples = 3\nvalue = [2, 0, 1, 0, 0]\nclass = drizzle", fillcolor="#f2c09c"] ;
705 -> 711 ;
712 [label="gini = 0.0\nsamples = 1\nvalue = [0, 0, 1, 0, 0]\nclass = rain", fillcolor="#39e5c5"] ;
711 -> 712 ;
713 [label="gini = 0.0\nsamples = 2\nvalue = [2, 0, 0, 0, 0]\nclass = drizzle", fillcolor="#e58139"] ;
711 -> 713 ;
714 [label="temp_max <= 28.342\ngini = 0.38\nsamples = 30\nvalue = [5, 2, 0, 0, 23]\nclass = sun", fillcolor="#ec70d2"] ;
698 -> 714 ;
715 [label="wind <= 3.418\ngini = 0.188\nsamples = 19\nvalue = [0, 2, 0, 0, 17]\nclass = sun", fillcolor="#e850c7"] ;
714 -> 715 ;
716 [label="temp_max <= 26.302\ngini = 0.105\nsamples = 18\nvalue = [0, 1, 0, 0, 17]\nclass = sun", fillcolor="#e745c4"] ;
715 -> 716 ;
717 [label="gini = 0.0\nsamples = 12\nvalue = [0, 0, 0, 0, 12]\nclass = sun", fillcolor="#e539c0"] ;
716 -> 717 ;
718 [label="temp_max <= 26.602\ngini = 0.278\nsamples = 6\nvalue = [0, 1, 0, 0, 5]\nclass = sun", fillcolor="#ea61cd"] ;
716 -> 718 ;
719 [label="gini = 0.0\nsamples = 1\nvalue = [0, 1, 0, 0, 0]\nclass = fog", fillcolor="#7be539"] ;
718 -> 719 ;
720 [label="gini = 0.0\nsamples = 5\nvalue = [0, 0, 0, 0, 5]\nclass = sun", fillcolor="#e539c0"] ;
718 -> 720 ;
721 [label="gini = 0.0\nsamples = 1\nvalue = [0, 1, 0, 0, 0]\nclass = fog", fillcolor="#7be539"] ;
715 -> 721 ;
722 [label="temp_min <= 15.036\ngini = 0.496\nsamples = 11\nvalue = [5, 0, 0, 0, 6]\nclass = sun", fillcolor="#fbdef4"] ;
714 -> 722 ;
723 [label="gini = 0.0\nsamples = 4\nvalue = [0, 0, 0, 0, 4]\nclass = sun", fillcolor="#e539c0"] ;
722 -> 723 ;
724 [label="temp_min <= 15.41\ngini = 0.408\nsamples = 7\nvalue = [5, 0, 0, 0, 2]\nclass = drizzle", fillcolor="#efb388"] ;
722 -> 724 ;
725 [label="gini = 0.0\nsamples = 4\nvalue = [4, 0, 0, 0, 0]\nclass = drizzle", fillcolor="#e58139"] ;
724 -> 725 ;
726 [label="temp_min <= 16.4\ngini = 0.444\nsamples = 3\nvalue = [1, 0, 0, 0, 2]\nclass = sun", fillcolor="#f29ce0"] ;
724 -> 726 ;
727 [label="wind <= 3.25\ngini = 0.5\nsamples = 2\nvalue = [1, 0, 0, 0, 1]\nclass = drizzle", fillcolor="#ffffff"] ;
726 -> 727 ;
728 [label="gini = 0.0\nsamples = 1\nvalue = [1, 0, 0, 0, 0]\nclass = drizzle", fillcolor="#e58139"] ;
727 -> 728 ;
729 [label="gini = 0.0\nsamples = 1\nvalue = [0, 0, 0, 0, 1]\nclass = sun", fillcolor="#e539c0"] ;
727 -> 729 ;
730 [label="gini = 0.0\nsamples = 1\nvalue = [0, 0, 0, 0, 1]\nclass = sun", fillcolor="#e539c0"] ;
726 -> 730 ;
731 [label="temp_max <= 30.013\ngini = 0.525\nsamples = 25\nvalue = [16, 4, 0, 0, 5]\nclass = drizzle", fillcolor="#f1ba92"] ;
697 -> 731 ;
732 [label="temp_min <= 15.122\ngini = 0.277\nsamples = 19\nvalue = [16, 1, 0, 0, 2]\nclass = drizzle", fillcolor="#ea975c"] ;
731 -> 732 ;
733 [label="gini = 0.0\nsamples = 1\nvalue = [0, 0, 0, 0, 1]\nclass = sun", fillcolor="#e539c0"] ;
732 -> 733 ;
734 [label="wind <= 2.807\ngini = 0.204\nsamples = 18\nvalue = [16, 1, 0, 0, 1]\nclass = drizzle", fillcolor="#e89050"] ;
732 -> 734 ;
735 [label="gini = 0.0\nsamples = 1\nvalue = [0, 0, 0, 0, 1]\nclass = sun", fillcolor="#e539c0"] ;
734 -> 735 ;
736 [label="wind <= 2.928\ngini = 0.111\nsamples = 17\nvalue = [16, 1, 0, 0, 0]\nclass = drizzle", fillcolor="#e78945"] ;
734 -> 736 ;
737 [label="temp_max <= 29.731\ngini = 0.375\nsamples = 4\nvalue = [3, 1, 0, 0, 0]\nclass = drizzle", fillcolor="#eeab7b"] ;
736 -> 737 ;
738 [label="gini = 0.0\nsamples = 3\nvalue = [3, 0, 0, 0, 0]\nclass = drizzle", fillcolor="#e58139"] ;
737 -> 738 ;
739 [label="gini = 0.0\nsamples = 1\nvalue = [0, 1, 0, 0, 0]\nclass = fog", fillcolor="#7be539"] ;
737 -> 739 ;
740 [label="gini = 0.0\nsamples = 13\nvalue = [13, 0, 0, 0, 0]\nclass = drizzle", fillcolor="#e58139"] ;
736 -> 740 ;
741 [label="temp_max <= 30.536\ngini = 0.5\nsamples = 6\nvalue = [0, 3, 0, 0, 3]\nclass = fog", fillcolor="#ffffff"] ;
731 -> 741 ;
742 [label="gini = 0.0\nsamples = 2\nvalue = [0, 2, 0, 0, 0]\nclass = fog", fillcolor="#7be539"] ;
741 -> 742 ;
743 [label="wind <= 3.2\ngini = 0.375\nsamples = 4\nvalue = [0, 1, 0, 0, 3]\nclass = sun", fillcolor="#ee7bd5"] ;
741 -> 743 ;
744 [label="gini = 0.0\nsamples = 2\nvalue = [0, 0, 0, 0, 2]\nclass = sun", fillcolor="#e539c0"] ;
743 -> 744 ;
745 [label="temp_min <= 14.7\ngini = 0.5\nsamples = 2\nvalue = [0, 1, 0, 0, 1]\nclass = fog", fillcolor="#ffffff"] ;
743 -> 745 ;
746 [label="gini = 0.0\nsamples = 1\nvalue = [0, 0, 0, 0, 1]\nclass = sun", fillcolor="#e539c0"] ;
745 -> 746 ;
747 [label="gini = 0.0\nsamples = 1\nvalue = [0, 1, 0, 0, 0]\nclass = fog", fillcolor="#7be539"] ;
745 -> 747 ;
748 [label="temp_max <= 24.44\ngini = 0.531\nsamples = 40\nvalue = [5, 25, 0, 0, 10]\nclass = fog", fillcolor="#bdf29c"] ;
690 -> 748 ;
749 [label="temp_max <= 23.165\ngini = 0.278\nsamples = 6\nvalue = [5, 0, 0, 0, 1]\nclass = drizzle", fillcolor="#ea9a61"] ;
748 -> 749 ;
750 [label="gini = 0.0\nsamples = 1\nvalue = [0, 0, 0, 0, 1]\nclass = sun", fillcolor="#e539c0"] ;
749 -> 750 ;
751 [label="gini = 0.0\nsamples = 5\nvalue = [5, 0, 0, 0, 0]\nclass = drizzle", fillcolor="#e58139"] ;
749 -> 751 ;
752 [label="wind <= 3.685\ngini = 0.389\nsamples = 34\nvalue = [0, 25, 0, 0, 9]\nclass = fog", fillcolor="#abee80"] ;
748 -> 752 ;
753 [label="gini = 0.0\nsamples = 13\nvalue = [0, 13, 0, 0, 0]\nclass = fog", fillcolor="#7be539"] ;
752 -> 753 ;
754 [label="temp_max <= 24.881\ngini = 0.49\nsamples = 21\nvalue = [0, 12, 0, 0, 9]\nclass = fog", fillcolor="#def8ce"] ;
752 -> 754 ;
755 [label="gini = 0.0\nsamples = 5\nvalue = [0, 5, 0, 0, 0]\nclass = fog", fillcolor="#7be539"] ;
754 -> 755 ;
756 [label="temp_min <= 17.166\ngini = 0.492\nsamples = 16\nvalue = [0, 7, 0, 0, 9]\nclass = sun", fillcolor="#f9d3f1"] ;
754 -> 756 ;
757 [label="temp_max <= 26.265\ngini = 0.397\nsamples = 11\nvalue = [0, 3, 0, 0, 8]\nclass = sun", fillcolor="#ef83d8"] ;
756 -> 757 ;
758 [label="temp_max <= 25.025\ngini = 0.5\nsamples = 4\nvalue = [0, 2, 0, 0, 2]\nclass = fog", fillcolor="#ffffff"] ;
757 -> 758 ;
759 [label="gini = 0.0\nsamples = 2\nvalue = [0, 0, 0, 0, 2]\nclass = sun", fillcolor="#e539c0"] ;
758 -> 759 ;
760 [label="gini = 0.0\nsamples = 2\nvalue = [0, 2, 0, 0, 0]\nclass = fog", fillcolor="#7be539"] ;
758 -> 760 ;
761 [label="temp_min <= 16.043\ngini = 0.245\nsamples = 7\nvalue = [0, 1, 0, 0, 6]\nclass = sun", fillcolor="#e95acb"] ;
757 -> 761 ;
762 [label="gini = 0.0\nsamples = 5\nvalue = [0, 0, 0, 0, 5]\nclass = sun", fillcolor="#e539c0"] ;
761 -> 762 ;
763 [label="temp_max <= 27.748\ngini = 0.5\nsamples = 2\nvalue = [0, 1, 0, 0, 1]\nclass = fog", fillcolor="#ffffff"] ;
761 -> 763 ;
764 [label="gini = 0.0\nsamples = 1\nvalue = [0, 0, 0, 0, 1]\nclass = sun", fillcolor="#e539c0"] ;
763 -> 764 ;
765 [label="gini = 0.0\nsamples = 1\nvalue = [0, 1, 0, 0, 0]\nclass = fog", fillcolor="#7be539"] ;
763 -> 765 ;
766 [label="temp_max <= 29.001\ngini = 0.32\nsamples = 5\nvalue = [0, 4, 0, 0, 1]\nclass = fog", fillcolor="#9cec6a"] ;
756 -> 766 ;
767 [label="gini = 0.0\nsamples = 4\nvalue = [0, 4, 0, 0, 0]\nclass = fog", fillcolor="#7be539"] ;
766 -> 767 ;
768 [label="gini = 0.0\nsamples = 1\nvalue = [0, 0, 0, 0, 1]\nclass = sun", fillcolor="#e539c0"] ;
766 -> 768 ;
769 [label="temp_min <= 13.6\ngini = 0.401\nsamples = 57\nvalue = [1, 9, 4, 0, 43]\nclass = sun", fillcolor="#ed73d2"] ;
477 -> 769 ;
770 [label="temp_max <= 12.023\ngini = 0.277\nsamples = 45\nvalue = [1, 2, 4, 0, 38]\nclass = sun", fillcolor="#e95bcb"] ;
769 -> 770 ;
771 [label="temp_min <= 4.45\ngini = 0.667\nsamples = 6\nvalue = [0, 2, 2, 0, 2]\nclass = fog", fillcolor="#ffffff"] ;
770 -> 771 ;
772 [label="gini = 0.0\nsamples = 2\nvalue = [0, 0, 2, 0, 0]\nclass = rain", fillcolor="#39e5c5"] ;
771 -> 772 ;
773 [label="temp_max <= 11.4\ngini = 0.5\nsamples = 4\nvalue = [0, 2, 0, 0, 2]\nclass = fog", fillcolor="#ffffff"] ;
771 -> 773 ;
774 [label="gini = 0.0\nsamples = 2\nvalue = [0, 0, 0, 0, 2]\nclass = sun", fillcolor="#e539c0"] ;
773 -> 774 ;
775 [label="gini = 0.0\nsamples = 2\nvalue = [0, 2, 0, 0, 0]\nclass = fog", fillcolor="#7be539"] ;
773 -> 775 ;
776 [label="wind <= 4.75\ngini = 0.145\nsamples = 39\nvalue = [1, 0, 2, 0, 36]\nclass = sun", fillcolor="#e749c5"] ;
770 -> 776 ;
777 [label="temp_min <= 9.75\ngini = 0.29\nsamples = 18\nvalue = [1, 0, 2, 0, 15]\nclass = sun", fillcolor="#ea5ecc"] ;
776 -> 777 ;
778 [label="temp_min <= 8.05\ngini = 0.43\nsamples = 11\nvalue = [1, 0, 2, 0, 8]\nclass = sun", fillcolor="#ee7bd5"] ;
777 -> 778 ;
779 [label="temp_max <= 18.05\ngini = 0.219\nsamples = 8\nvalue = [1, 0, 0, 0, 7]\nclass = sun", fillcolor="#e955c9"] ;
778 -> 779 ;
780 [label="gini = 0.0\nsamples = 7\nvalue = [0, 0, 0, 0, 7]\nclass = sun", fillcolor="#e539c0"] ;
779 -> 780 ;
781 [label="gini = 0.0\nsamples = 1\nvalue = [1, 0, 0, 0, 0]\nclass = drizzle", fillcolor="#e58139"] ;
779 -> 781 ;
782 [label="temp_max <= 18.9\ngini = 0.444\nsamples = 3\nvalue = [0, 0, 2, 0, 1]\nclass = rain", fillcolor="#9cf2e2"] ;
778 -> 782 ;
783 [label="gini = 0.0\nsamples = 2\nvalue = [0, 0, 2, 0, 0]\nclass = rain", fillcolor="#39e5c5"] ;
782 -> 783 ;
784 [label="gini = 0.0\nsamples = 1\nvalue = [0, 0, 0, 0, 1]\nclass = sun", fillcolor="#e539c0"] ;
782 -> 784 ;
785 [label="gini = 0.0\nsamples = 7\nvalue = [0, 0, 0, 0, 7]\nclass = sun", fillcolor="#e539c0"] ;
777 -> 785 ;
786 [label="gini = 0.0\nsamples = 21\nvalue = [0, 0, 0, 0, 21]\nclass = sun", fillcolor="#e539c0"] ;
776 -> 786 ;
787 [label="temp_max <= 26.744\ngini = 0.486\nsamples = 12\nvalue = [0, 7, 0, 0, 5]\nclass = fog", fillcolor="#d9f8c6"] ;
769 -> 787 ;
788 [label="temp_min <= 15.671\ngini = 0.346\nsamples = 9\nvalue = [0, 7, 0, 0, 2]\nclass = fog", fillcolor="#a1ec72"] ;
787 -> 788 ;
789 [label="gini = 0.0\nsamples = 7\nvalue = [0, 7, 0, 0, 0]\nclass = fog", fillcolor="#7be539"] ;
788 -> 789 ;
790 [label="gini = 0.0\nsamples = 2\nvalue = [0, 0, 0, 0, 2]\nclass = sun", fillcolor="#e539c0"] ;
788 -> 790 ;
791 [label="gini = 0.0\nsamples = 3\nvalue = [0, 0, 0, 0, 3]\nclass = sun", fillcolor="#e539c0"] ;
787 -> 791 ;
792 [label="temp_min <= 2.798\ngini = 0.499\nsamples = 859\nvalue = [0, 0, 411, 448, 0]\nclass = snow", fillcolor="#efeffd"] ;
0 -> 792 [labeldistance=2.5, labelangle=-45, headlabel="False"] ;
793 [label="wind <= 3.506\ngini = 0.115\nsamples = 475\nvalue = [0, 0, 29, 446, 0]\nclass = snow", fillcolor="#4946e7"] ;
792 -> 793 ;
794 [label="wind <= 1.758\ngini = 0.357\nsamples = 112\nvalue = [0, 0, 26, 86, 0]\nclass = snow", fillcolor="#7775ed"] ;
793 -> 794 ;
795 [label="gini = 0.0\nsamples = 4\nvalue = [0, 0, 4, 0, 0]\nclass = rain", fillcolor="#39e5c5"] ;
794 -> 795 ;
796 [label="temp_max <= 9.815\ngini = 0.324\nsamples = 108\nvalue = [0, 0, 22, 86, 0]\nclass = snow", fillcolor="#6e6cec"] ;
794 -> 796 ;
797 [label="precipitation <= 3.774\ngini = 0.306\nsamples = 106\nvalue = [0, 0, 20, 86, 0]\nclass = snow", fillcolor="#6967eb"] ;
796 -> 797 ;
798 [label="temp_max <= 5.138\ngini = 0.435\nsamples = 47\nvalue = [0, 0, 15, 32, 0]\nclass = snow", fillcolor="#9796f1"] ;
797 -> 798 ;
799 [label="precipitation <= 2.23\ngini = 0.111\nsamples = 34\nvalue = [0, 0, 2, 32, 0]\nclass = snow", fillcolor="#4845e7"] ;
798 -> 799 ;
800 [label="gini = 0.0\nsamples = 32\nvalue = [0, 0, 0, 32, 0]\nclass = snow", fillcolor="#3c39e5"] ;
799 -> 800 ;
801 [label="gini = 0.0\nsamples = 2\nvalue = [0, 0, 2, 0, 0]\nclass = rain", fillcolor="#39e5c5"] ;
799 -> 801 ;
802 [label="gini = 0.0\nsamples = 13\nvalue = [0, 0, 13, 0, 0]\nclass = rain", fillcolor="#39e5c5"] ;
798 -> 802 ;
803 [label="precipitation <= 14.377\ngini = 0.155\nsamples = 59\nvalue = [0, 0, 5, 54, 0]\nclass = snow", fillcolor="#4e4be7"] ;
797 -> 803 ;
804 [label="temp_max <= 5.798\ngini = 0.128\nsamples = 58\nvalue = [0, 0, 4, 54, 0]\nclass = snow", fillcolor="#4a48e7"] ;
803 -> 804 ;
805 [label="gini = 0.0\nsamples = 1\nvalue = [0, 0, 1, 0, 0]\nclass = rain", fillcolor="#39e5c5"] ;
804 -> 805 ;
806 [label="wind <= 3.495\ngini = 0.1\nsamples = 57\nvalue = [0, 0, 3, 54, 0]\nclass = snow", fillcolor="#4744e6"] ;
804 -> 806 ;
807 [label="wind <= 3.082\ngini = 0.069\nsamples = 56\nvalue = [0, 0, 2, 54, 0]\nclass = snow", fillcolor="#4340e6"] ;
806 -> 807 ;
808 [label="gini = 0.0\nsamples = 38\nvalue = [0, 0, 0, 38, 0]\nclass = snow", fillcolor="#3c39e5"] ;
